{"learner":{"attributes":{},"feature_names":["2","3","4","5","6","7","8","9","10","11","12","13","14","15","16","17","18","19","20","21","22","23","24","25","26","27","28","29","30","31","32","33","34","35","36","37","38","39","40","41","42","43","44","45","46","47","48","49","50","51","52","53","54","55","56","57","58","59","60","61","62","63","64","65","66","67","68","69","70","71","72","73","74","75","76","77","78","79","80","81","82","83","84","85","86","87","88","89","90","91","92","93","94","95","96","97","98","99","100","101","102","103","104","105","106","107","108","109","110","111","112","113","114","115","116","117","118","119","120","121","122","123","124","125","126","127","128","129","130","131","132","133","134","135","136","137","138","139","140","141","142","143","144","145","146","147","148","149","150","151","152","153","154","155","156","157","158","159","160","161","162","163","164","165","166"],"feature_types":["float","float","float","float","float","float","float","float","float","float","float","float","float","float","float","float","float","float","float","float","float","float","float","float","float","float","float","float","float","float","float","float","float","float","float","float","float","float","float","float","float","float","float","float","float","float","float","float","float","float","float","float","float","float","float","float","float","float","float","float","float","float","float","float","float","float","float","float","float","float","float","float","float","float","float","float","float","float","float","float","float","float","float","float","float","float","float","float","float","float","float","float","float","float","float","float","float","float","float","float","float","float","float","float","float","float","float","float","float","float","float","float","float","float","float","float","float","float","float","float","float","float","float","float","float","float","float","float","float","float","float","float","float","float","float","float","float","float","float","float","float","float","float","float","float","float","float","float","float","float","float","float","float","float","float","float","float","float","float","float","float","float","float","float","float"],"gradient_booster":{"model":{"cats":{"enc":[],"feature_segments":[],"sorted_idx":[]},"gbtree_model_param":{"num_parallel_tree":"1","num_trees":"200"},"iteration_indptr":[0,1,2,3,4,5,6,7,8,9,10,11,12,13,14,15,16,17,18,19,20,21,22,23,24,25,26,27,28,29,30,31,32,33,34,35,36,37,38,39,40,41,42,43,44,45,46,47,48,49,50,51,52,53,54,55,56,57,58,59,60,61,62,63,64,65,66,67,68,69,70,71,72,73,74,75,76,77,78,79,80,81,82,83,84,85,86,87,88,89,90,91,92,93,94,95,96,97,98,99,100,101,102,103,104,105,106,107,108,109,110,111,112,113,114,115,116,117,118,119,120,121,122,123,124,125,126,127,128,129,130,131,132,133,134,135,136,137,138,139,140,141,142,143,144,145,146,147,148,149,150,151,152,153,154,155,156,157,158,159,160,161,162,163,164,165,166,167,168,169,170,171,172,173,174,175,176,177,178,179,180,181,182,183,184,185,186,187,188,189,190,191,192,193,194,195,196,197,198,199,200],"tree_info":[0,0,0,0,0,0,0,0,0,0,0,0,0,0,0,0,0,0,0,0,0,0,0,0,0,0,0,0,0,0,0,0,0,0,0,0,0,0,0,0,0,0,0,0,0,0,0,0,0,0,0,0,0,0,0,0,0,0,0,0,0,0,0,0,0,0,0,0,0,0,0,0,0,0,0,0,0,0,0,0,0,0,0,0,0,0,0,0,0,0,0,0,0,0,0,0,0,0,0,0,0,0,0,0,0,0,0,0,0,0,0,0,0,0,0,0,0,0,0,0,0,0,0,0,0,0,0,0,0,0,0,0,0,0,0,0,0,0,0,0,0,0,0,0,0,0,0,0,0,0,0,0,0,0,0,0,0,0,0,0,0,0,0,0,0,0,0,0,0,0,0,0,0,0,0,0,0,0,0,0,0,0,0,0,0,0,0,0,0,0,0,0,0,0,0,0,0,0,0,0],"trees":[{"base_weights":[1.0902544E-2,3.5063834E0,-6.88096E-1,8.570656E-1,5.6289804E-1,6.55372E-1,-8.6348754E-1,3.9258728E0,-6.8776506E-1,7.4038877E0,-7.292744E-1,-1.0229384E0,-1.8159598E-1,5.8748474E0,8.4251136E-1,9.04072E-2,-9.91005E-1,7.956015E0,-5.3237754E-1,-1.0458318E0,9.339107E-1,-5.136199E-1,-1.078552E0,8.382994E-1,-1.1273321E-1,-8.238783E-2,6.9710594E-1,-1.1583894E-2,5.725376E-1,1.510459E-1,-4.8978698E-2,4.9742855E-2,-1.0324688E-1,2.2005765E-1,8.173068E-1,-6.8500176E-2,-7.810964E-3,-1.0694019E-1,9.774436E-2,3.2889098E-1,-3.4095928E-2,-8.753192E-2,3.1033036E-1,7.903605E-3,-1.0851208E-1],"categories":[],"categories_nodes":[],"categories_segments":[],"categories_sizes":[],"default_left":[0,0,0,0,0,0,0,0,0,0,0,0,0,0,0,0,0,0,0,0,0,0,0,0,0,0,0,0,0,0,0,0,0,0,0,0,0,0,0,0,0,0,0,0,0],"id":0,"left_children":[1,3,5,-1,7,9,11,13,15,17,19,21,23,25,27,29,31,33,35,37,39,41,43,-1,-1,-1,-1,-1,-1,-1,-1,-1,-1,-1,-1,-1,-1,-1,-1,-1,-1,-1,-1,-1,-1],"loss_changes":[5.985429E3,6.08057E3,4.8160425E2,0E0,1.0930765E3,2.2135461E3,1.9619507E2,4.1826465E2,4.4882187E1,1.8091357E2,1.0468999E2,4.090381E1,2.791903E3,3.213766E2,1.337598E2,4.534957E1,8.9487E0,2.9186768E1,1.9331324E-1,8.959793E0,9.727486E1,1.9371236E2,1.0112793E1,0E0,0E0,0E0,0E0,0E0,0E0,0E0,0E0,0E0,0E0,0E0,0E0,0E0,0E0,0E0,0E0,0E0,0E0,0E0,0E0,0E0,0E0],"parents":[2147483647,0,0,1,1,2,2,4,4,5,5,6,6,7,7,8,8,9,9,10,10,11,11,12,12,13,13,14,14,15,15,16,16,17,17,18,18,19,19,20,20,21,21,22,22],"right_children":[2,4,6,-1,8,10,12,14,16,18,20,22,24,26,28,30,32,34,36,38,40,42,44,-1,-1,-1,-1,-1,-1,-1,-1,-1,-1,-1,-1,-1,-1,-1,-1,-1,-1,-1,-1,-1,-1],"split_conditions":[-4.881168E-1,-4.3874547E-2,-4.6095642E-1,8.570656E-1,-1.3198239E-1,-4.3874547E-2,8.867613E-1,-1.3134078E0,-1.3134078E0,-2.3141915E-1,-1.6342145E-1,-2.4307236E-1,9.140187E-1,-1.8305233E-1,-3.0013675E-2,-1.6312157E-1,-1.7285798E-1,-1.6944319E-1,-1.7278829E-1,-2.9933745E-2,-1.3198239E-1,4.82977E-2,-1.7109817E-1,8.382994E-1,-1.1273321E-1,-8.238783E-2,6.9710594E-1,-1.1583894E-2,5.725376E-1,1.510459E-1,-4.8978698E-2,4.9742855E-2,-1.0324688E-1,2.2005765E-1,8.173068E-1,-6.8500176E-2,-7.810964E-3,-1.0694019E-1,9.774436E-2,3.2889098E-1,-3.4095928E-2,-8.753192E-2,3.1033036E-1,7.903605E-3,-1.0851208E-1],"split_indices":[52,4,52,0,162,4,39,79,79,53,7,46,39,1,70,59,0,8,0,70,162,1,93,0,0,0,0,0,0,0,0,0,0,0,0,0,0,0,0,0,0,0,0,0,0],"split_type":[0,0,0,0,0,0,0,0,0,0,0,0,0,0,0,0,0,0,0,0,0,0,0,0,0,0,0,0,0,0,0,0,0,0,0,0,0,0,0,0,0,0,0,0,0],"sum_hessian":[2.447708E3,4.0723453E2,2.0404734E3,1.4898825E2,2.5824628E2,2.3530927E2,1.8051641E3,6.942545E1,1.8882085E2,3.932061E1,1.9598866E2,1.4626448E3,3.4251938E2,4.198294E1,2.7442509E1,5.314426E1,1.3567657E2,3.6760674E1,2.5599356E0,1.6496225E2,3.1026419E1,1.4499475E2,1.31765E3,3.327916E1,3.092402E2,5.93905E0,3.604389E1,2.37562E1,3.6863072E0,1.4950024E1,3.8194237E1,3.3791149E0,1.3229747E2,1.7407562E0,3.5019917E1,1.5359613E0,1.0239742E0,1.6352869E2,1.4335638E0,1.0342139E1,2.0684278E1,1.3250226E2,1.2492485E1,7.3726144E0,1.3102773E3],"tree_param":{"num_deleted":"0","num_feature":"165","num_nodes":"45","size_leaf_vector":"1"}},{"base_weights":[-3.0417385E-2,2.2792203E0,-6.6201293E-1,4.2165023E-1,3.8321763E-1,4.8788375E-1,-8.372908E-1,2.439199E0,-6.791743E-1,3.797588E0,-7.749744E-1,-1.0073897E0,-1.691104E-1,-9.771513E-1,3.0252287E0,3.9390013E-2,-9.892658E-1,-8.992796E-2,4.071294E0,-1.11030936E-1,1.6285375E-1,-4.5611635E-1,-1.0656155E0,4.230891E-1,-1.1130684E-1,-1.0414131E-1,-9.576245E-3,3.86033E-1,4.9779605E-2,1.6542625E-1,-4.1553628E-2,2.2748517E-2,-1.034048E-1,1.16828375E-1,-8.739447E-2,4.1884086E-1,-3.3403914E-2,1.5294102E-1,-5.5370875E-2,-8.6769015E-2,2.6317638E-1,-8.247196E-3,-1.07261136E-1],"categories":[],"categories_nodes":[],"categories_segments":[],"categories_sizes":[],"default_left":[0,0,0,0,0,0,0,0,0,0,0,0,0,0,0,0,0,0,0,0,0,0,0,0,0,0,0,0,0,0,0,0,0,0,0,0,0,0,0,0,0,0,0],"id":1,"left_children":[1,3,5,-1,7,9,11,13,15,17,19,21,23,25,27,29,31,33,35,-1,37,39,41,-1,-1,-1,-1,-1,-1,-1,-1,-1,-1,-1,-1,-1,-1,-1,-1,-1,-1,-1,-1],"loss_changes":[3.6040264E3,1.9471016E3,3.9142676E2,0E0,5.897154E2,1.0781124E3,1.9120532E2,1.8702728E2,3.976481E1,7.613989E1,5.899713E1,4.258789E1,1.4287899E3,7.055578E-1,1.6423395E2,4.0877495E1,7.0233917E0,6.606826E0,3.573474E1,0E0,4.9936893E1,1.6742859E2,8.254395E0,0E0,0E0,0E0,0E0,0E0,0E0,0E0,0E0,0E0,0E0,0E0,0E0,0E0,0E0,0E0,0E0,0E0,0E0,0E0,0E0],"parents":[2147483647,0,0,1,1,2,2,4,4,5,5,6,6,7,7,8,8,9,9,10,10,11,11,12,12,13,13,14,14,15,15,16,16,17,17,18,18,20,20,21,21,22,22],"right_children":[2,4,6,-1,8,10,12,14,16,18,20,22,24,26,28,30,32,34,36,-1,38,40,42,-1,-1,-1,-1,-1,-1,-1,-1,-1,-1,-1,-1,-1,-1,-1,-1,-1,-1,-1,-1],"split_conditions":[-4.881168E-1,-4.3874547E-2,-4.6095642E-1,4.2165023E-1,-1.3198239E-1,-3.0168554E-1,8.867613E-1,-1.8305233E-1,-1.3134078E0,-1.6913912E-1,-3.9146375E-2,-2.4308199E-1,9.140187E-1,-2.4354471E-1,-1.5818073E-1,-2.623959E-1,-1.7285521E-1,-7.618103E-1,-8.014715E-2,-1.11030936E-1,-1.3198239E-1,4.82977E-2,-1.7109817E-1,4.230891E-1,-1.1130684E-1,-1.0414131E-1,-9.576245E-3,3.86033E-1,4.9779605E-2,1.6542625E-1,-4.1553628E-2,2.2748517E-2,-1.034048E-1,1.16828375E-1,-8.739447E-2,4.1884086E-1,-3.3403914E-2,1.5294102E-1,-5.5370875E-2,-8.6769015E-2,2.6317638E-1,-8.247196E-3,-1.07261136E-1],"split_indices":[52,4,52,0,162,137,39,1,79,1,63,46,39,77,16,82,0,88,23,0,162,1,93,0,0,0,0,0,0,0,0,0,0,0,0,0,0,0,0,0,0,0,0],"split_type":[0,0,0,0,0,0,0,0,0,0,0,0,0,0,0,0,0,0,0,0,0,0,0,0,0,0,0,0,0,0,0,0,0,0,0,0,0,0,0,0,0,0,0],"sum_hessian":[2.4685803E3,5.2953864E2,1.9390417E3,2.6131277E2,2.682259E2,2.5623685E2,1.6828049E3,9.093979E1,1.7728609E2,7.021359E1,1.8602324E2,1.3409352E3,3.4186975E2,1.3217713E1,7.772208E1,5.37066E1,1.2357948E2,4.662487E0,6.555111E1,1.368916E2,4.9131634E1,1.2894434E2,1.2119908E3,5.9772858E1,2.820969E2,1.215028E1,1.0674331E0,5.8023037E1,1.969904E1,1.1224863E1,4.248174E1,4.2420225E0,1.1933746E2,1.60178E0,3.0607069E0,6.3901543E1,1.6495653E0,1.6510359E1,3.2621273E1,1.1441352E2,1.4530817E1,8.653725E0,1.2033372E3],"tree_param":{"num_deleted":"0","num_feature":"165","num_nodes":"43","size_leaf_vector":"1"}},{"base_weights":[-4.1699424E-2,1.4939233E0,-8.00995E-1,3.1216745E0,8.562894E-3,-9.6767944E-1,-1.5295804E-1,7.0565574E-2,3.1303596E-1,1.8410145E0,-7.753272E-1,-4.2553455E-1,-1.0333954E0,3.1203413E-1,-1.1004068E-1,-1.0674017E-1,2.3282402E0,-1.8651766E-1,-9.787907E-1,-6.932559E-1,1.5944949E0,5.3918406E-2,-1.0414709E0,2.7065057E-1,-3.3927526E-2,-6.349356E-2,1.5325439E-1,-1.07075654E-1,-6.392642E-2,6.4752474E-2,-8.354391E-2,4.5040175E-1,-6.201703E-2,-9.870264E-2,3.259005E-1,-2.6873985E-2,-1.0489112E-1],"categories":[],"categories_nodes":[],"categories_segments":[],"categories_sizes":[],"default_left":[0,0,0,0,0,0,0,0,0,0,0,0,0,0,0,0,0,0,0,0,0,0,0,0,0,0,0,0,0,0,0,0,0,0,0,0,0],"id":2,"left_children":[1,3,5,7,9,11,13,-1,-1,15,17,19,21,-1,-1,-1,23,25,27,29,31,33,35,-1,-1,-1,-1,-1,-1,-1,-1,-1,-1,-1,-1,-1,-1],"loss_changes":[2.8154517E3,1.9315916E3,1.743761E2,5.789795E0,6.0291095E2,4.5340088E1,1.0322682E3,0E0,0E0,1.8068527E2,3.5036377E1,7.715163E1,1.0112915E1,0E0,0E0,0E0,1.0991797E2,6.0122433E1,6.1302185E0,2.4343498E1,1.1077887E2,3.4559345E1,6.2546387E0,0E0,0E0,0E0,0E0,0E0,0E0,0E0,0E0,0E0,0E0,0E0,0E0,0E0,0E0],"parents":[2147483647,0,0,1,1,2,2,3,3,4,4,5,5,6,6,9,9,10,10,11,11,12,12,16,16,17,17,18,18,19,19,20,20,21,21,22,22],"right_children":[2,4,6,8,10,12,14,-1,-1,16,18,20,22,-1,-1,-1,24,26,28,30,32,34,36,-1,-1,-1,-1,-1,-1,-1,-1,-1,-1,-1,-1,-1,-1],"split_conditions":[-4.79987E-1,-4.2955298E-2,8.867613E-1,-1.7172503E-1,-1.3198239E-1,-2.3923475E-1,9.140187E-1,7.0565574E-2,3.1303596E-1,-1.0943644E0,-1.3134078E0,4.82977E-2,-1.7109817E-1,3.1203413E-1,-1.1004068E-1,-1.0674017E-1,-1.488998E-1,6.4325863E-1,9.235163E-1,-7.61906E-1,-1.2970841E0,1.02321275E-1,-4.6095642E-1,2.7065057E-1,-3.3927526E-2,-6.349356E-2,1.5325439E-1,-1.07075654E-1,-6.392642E-2,6.4752474E-2,-8.354391E-2,4.5040175E-1,-6.201703E-2,-9.870264E-2,3.259005E-1,-2.6873985E-2,-1.0489112E-1],"split_indices":[52,13,39,1,162,40,39,0,0,102,79,1,93,0,0,0,22,114,67,88,100,41,52,0,0,0,0,0,0,0,0,0,0,0,0,0,0],"split_type":[0,0,0,0,0,0,0,0,0,0,0,0,0,0,0,0,0,0,0,0,0,0,0,0,0,0,0,0,0,0,0,0,0,0,0,0,0],"sum_hessian":[2.4126152E3,7.979166E2,1.6146987E3,3.8018472E2,4.177319E2,1.2839539E3,3.3074478E2,1.6563812E0,3.7852832E2,1.2475388E2,2.9297803E2,1.3961673E2,1.1443372E3,7.3728836E1,2.5701596E2,1.7729519E1,1.0702436E2,7.573186E1,2.1724617E2,1.238582E2,1.5758537E1,8.394373E0,1.1359427E3,9.371986E1,1.3304507E1,6.056429E1,1.516757E1,1.6924887E2,4.7997295E1,1.1534477E1,1.1232372E2,6.3640394E0,9.394498E0,6.858817E0,1.5355561E0,1.118732E1,1.1247555E3],"tree_param":{"num_deleted":"0","num_feature":"165","num_nodes":"37","size_leaf_vector":"1"}},{"base_weights":[-3.750345E-2,1.528857E0,-6.2629026E-1,2.4452329E0,-8.569354E-1,-3.45234E-1,-1.0910832E0,1.24855034E-1,2.5423362E0,1.918505E0,-9.443785E-1,-5.8421016E-1,2.5476483E-1,-6.446729E-3,-1.092596E0,-5.367025E-1,1.9771699E0,2.5636816E0,-7.9944E-2,2.4563266E-2,2.289568E-1,-9.661926E-1,9.231929E-2,8.062039E-2,-8.7651473E-1,-4.9722567E-1,-1.09409295E-1,-1.01190306E-1,1.5163051E-2,2.4115248E-1,2.4821518E-2,2.5729603E-1,-6.1140742E-2,-1.7030903E-3,-1.0109252E-1,8.728188E-2,-7.9094954E-2,-9.383333E-2,4.0608946E-2,-6.057752E-3,-6.5195985E-2],"categories":[],"categories_nodes":[],"categories_segments":[],"categories_sizes":[],"default_left":[0,0,0,0,0,0,0,0,0,0,0,0,0,0,0,0,0,0,0,0,0,0,0,0,0,0,0,0,0,0,0,0,0,0,0,0,0,0,0,0,0],"id":3,"left_children":[1,3,5,7,9,11,13,15,17,19,21,23,-1,-1,25,27,29,31,-1,-1,-1,33,-1,35,37,39,-1,-1,-1,-1,-1,-1,-1,-1,-1,-1,-1,-1,-1,-1,-1],"loss_changes":[2.1609302E3,1.4016287E3,2.2208075E2,1.0394922E2,4.5104584E1,7.3614813E2,9.2559814E-1,2.5127438E1,3.3729248E1,3.0245E0,7.9645996E0,1.9098398E2,0E0,0E0,2.6550293E-2,5.144103E0,3.4430733E0,1.4580811E1,0E0,0E0,0E0,7.2894897E0,0E0,2.0847414E2,5.4492737E1,1.9284195E-1,0E0,0E0,0E0,0E0,0E0,0E0,0E0,0E0,0E0,0E0,0E0,0E0,0E0,0E0,0E0],"parents":[2147483647,0,0,1,1,2,2,3,3,4,4,5,5,6,6,7,7,8,8,9,9,10,10,11,11,14,14,15,15,16,16,17,17,21,21,23,23,24,24,25,25],"right_children":[2,4,6,8,10,12,14,16,18,20,22,24,-1,-1,26,28,30,32,-1,-1,-1,34,-1,36,38,40,-1,-1,-1,-1,-1,-1,-1,-1,-1,-1,-1,-1,-1,-1,-1],"split_conditions":[-6.942105E-1,-2.4313977E-1,-1.6509724E-1,-2.6441646E-1,-1.4370672E-1,9.268908E-1,-1.5566193E-1,3.2450885E-2,-6.7068905E-2,-1.6043599E-1,-8.94097E-2,-1.2956935E0,2.5476483E-1,-6.446729E-3,-1.4891097E-1,1.4809637E-1,-4.6092845E-2,7.710184E-2,-7.9944E-2,2.4563266E-2,2.289568E-1,-2.4308199E-1,9.231929E-2,-2.3932382E-1,-1.5055862E-2,-2.0808765E-1,-1.09409295E-1,-1.01190306E-1,1.5163051E-2,2.4115248E-1,2.4821518E-2,2.5729603E-1,-6.1140742E-2,-1.7030903E-3,-1.0109252E-1,8.728188E-2,-7.9094954E-2,-9.383333E-2,4.0608946E-2,-6.057752E-3,-6.5195985E-2],"split_indices":[89,46,64,76,124,45,24,1,124,105,143,80,0,0,22,19,9,57,0,0,0,46,0,40,72,106,0,0,0,0,0,0,0,0,0,0,0,0,0,0,0],"split_type":[0,0,0,0,0,0,0,0,0,0,0,0,0,0,0,0,0,0,0,0,0,0,0,0,0,0,0,0,0,0,0,0,0,0,0,0,0,0,0,0,0],"sum_hessian":[2.3410627E3,6.3914276E2,1.7019199E3,4.6175797E2,1.773848E2,1.0616763E3,6.4024365E2,1.8639326E1,4.4311865E2,4.7784066E0,1.7260638E2,9.8140234E2,8.027395E1,1.0063239E0,6.392373E2,1.4257491E1,4.3818355E0,4.4053757E2,2.581062E0,1.1692079E0,3.6091986E0,1.710906E2,1.515773E0,2.9993686E2,6.8146545E2,2.4387343E0,6.367986E2,8.156475E0,6.101016E0,3.186518E0,1.1953174E0,4.3944302E2,1.0945511E0,7.762481E0,1.6332812E2,1.5712206E2,1.428148E2,6.503868E2,3.107871E1,1.0021727E0,1.4365616E0],"tree_param":{"num_deleted":"0","num_feature":"165","num_nodes":"41","size_leaf_vector":"1"}},{"base_weights":[-3.86517E-2,1.1572999E0,-7.581836E-1,2.1938705E0,2.2979138E-2,-9.261752E-1,-1.4445226E-1,2.199264E0,3.293683E-2,1.504222E0,-7.4122965E-1,-2.251681E-1,-9.9763846E-1,2.2012475E-1,-1.0790887E-1,2.0569243E-2,2.2035633E-1,-1.05606936E-1,1.8749642E0,-9.7765875E-1,-9.030756E-2,-5.697774E-1,1.5701985E0,-6.3653487E-1,-1.02334E0,2.1692276E-1,5.0205817E-3,-9.919309E-2,4.515076E-2,7.715734E-2,-5.6693096E-2,8.41023E-2,-7.4335515E-2,3.2945338E-1,-5.7736225E-2,-9.84747E-2,1.9716622E-2,-8.884158E-2,-1.0471548E-1],"categories":[],"categories_nodes":[],"categories_segments":[],"categories_sizes":[],"default_left":[0,0,0,0,0,0,0,0,0,0,0,0,0,0,0,0,0,0,0,0,0,0,0,0,0,0,0,0,0,0,0,0,0,0,0,0,0,0,0],"id":4,"left_children":[1,3,5,7,9,11,13,15,-1,17,19,21,23,-1,-1,-1,-1,-1,25,27,29,31,33,35,37,-1,-1,-1,-1,-1,-1,-1,-1,-1,-1,-1,-1,-1,-1],"loss_changes":[1.9344146E3,9.928345E2,1.4456897E2,3.7126465E0,4.586775E2,5.496649E1,6.662155E2,3.315918E0,0E0,1.32875E2,4.105078E1,6.475243E1,8.624817E0,0E0,0E0,0E0,0E0,0E0,6.47648E1,4.445511E0,3.0148548E1,2.2009823E1,6.44368E1,2.0241789E1,2.062622E0,0E0,0E0,0E0,0E0,0E0,0E0,0E0,0E0,0E0,0E0,0E0,0E0,0E0,0E0],"parents":[2147483647,0,0,1,1,2,2,3,3,4,4,5,5,6,6,7,7,9,9,10,10,11,11,12,12,18,18,19,19,20,20,21,21,22,22,23,23,24,24],"right_children":[2,4,6,8,10,12,14,16,-1,18,20,22,24,-1,-1,-1,-1,-1,26,28,30,32,34,36,38,-1,-1,-1,-1,-1,-1,-1,-1,-1,-1,-1,-1,-1,-1],"split_conditions":[-4.79987E-1,-4.3874547E-2,8.867613E-1,-8.317427E-2,-1.3198239E-1,-2.4313977E-1,9.140187E-1,-1.7297496E-1,3.293683E-2,-1.0943644E0,8.870579E-1,4.82977E-2,-1.2746225E-1,2.2012475E-1,-1.0790887E-1,2.0569243E-2,2.2035633E-1,-1.05606936E-1,-1.0232061E-2,-4.0967813E-1,-1.6312157E-1,-7.2087157E-1,-1.0375501E0,-2.4212998E-1,-2.3470148E-1,2.1692276E-1,5.0205817E-3,-9.919309E-2,4.515076E-2,7.715734E-2,-5.6693096E-2,8.41023E-2,-7.4335515E-2,3.2945338E-1,-5.7736225E-2,-9.84747E-2,1.9716622E-2,-8.884158E-2,-1.0471548E-1],"split_indices":[52,4,39,101,162,46,39,0,0,102,19,1,126,0,0,0,0,0,154,51,59,90,136,102,42,0,0,0,0,0,0,0,0,0,0,0,0,0,0],"split_type":[0,0,0,0,0,0,0,0,0,0,0,0,0,0,0,0,0,0,0,0,0,0,0,0,0,0,0,0,0,0,0,0,0,0,0,0,0,0,0],"sum_hessian":[2.2459268E3,8.4343097E2,1.4024957E3,4.4021628E2,4.0321472E2,1.1007009E3,3.017948E2,4.3876746E2,1.4487989E0,1.3689906E2,2.6631567E2,1.0221281E2,9.984881E2,8.560153E1,2.1619325E2,1.0492907E0,4.3771817E2,1.7082344E1,1.1981671E2,1.9498933E2,7.132633E1,8.632576E1,1.5887045E1,6.8057175E1,9.304309E2,1.03015495E2,1.680122E1,1.9336427E2,1.6250644E0,2.5177988E1,4.6148342E1,9.036217E0,7.728954E1,8.515575E0,7.3714695E0,4.787856E1,2.017862E1,1.4533476E2,7.850961E2],"tree_param":{"num_deleted":"0","num_feature":"165","num_nodes":"39","size_leaf_vector":"1"}},{"base_weights":[-6.410781E-2,1.0116538E0,-7.4677545E-1,1.8915255E0,-1.8200386E-1,-9.139568E-1,-1.4729786E-1,-1.7126141E-3,1.9634541E0,1.0759262E0,-7.9351217E-1,-3.1093982E-1,-9.868102E-1,1.9617908E-1,-1.0701144E-1,1.1679341E0,-9.140292E-1,1.9796035E0,-6.2803125E-1,-1.06273346E-1,1.4015399E0,-1.0697138E0,-5.2683175E-1,-7.079237E-1,6.654037E-1,-5.596392E-1,-1.0185521E0,-7.7674403E-3,2.113045E-1,-9.966545E-2,-5.2275946E-3,1.986994E-1,-5.905458E-2,-1.6918961E-2,-7.4065246E-2,1.6791728E-1,-3.464269E-2,-1.0781415E-1,-8.169218E-3,6.9512525E-3,-9.4253704E-2,1.5025096E-2,-7.859489E-2,-5.7922967E-2,1.5786313E-1,5.286442E-2,-8.82107E-2,3.1522926E-2,-1.02196254E-1],"categories":[],"categories_nodes":[],"categories_segments":[],"categories_sizes":[],"default_left":[0,0,0,0,0,0,0,0,0,0,0,0,0,0,0,0,0,0,0,0,0,0,0,0,0,0,0,0,0,0,0,0,0,0,0,0,0,0,0,0,0,0,0,0,0,0,0,0,0],"id":5,"left_children":[1,3,5,7,9,11,13,15,17,19,21,23,25,-1,-1,27,29,31,33,-1,35,37,39,41,43,45,47,-1,-1,-1,-1,-1,-1,-1,-1,-1,-1,-1,-1,-1,-1,-1,-1,-1,-1,-1,-1,-1,-1],"loss_changes":[1.5650508E3,8.693045E2,1.3052374E2,6.487537E1,2.7162085E2,4.4469055E1,5.57734E2,2.0739704E1,2.0450317E1,8.196623E1,1.6924973E1,4.3619045E1,1.1753784E1,0E0,0E0,1.0191151E1,7.2528553E-1,9.841309E0,6.0793757E-2,0E0,4.9463425E1,8.750305E-1,3.0500053E1,5.4499016E0,3.807698E1,2.3307089E1,4.165039E0,0E0,0E0,0E0,0E0,0E0,0E0,0E0,0E0,0E0,0E0,0E0,0E0,0E0,0E0,0E0,0E0,0E0,0E0,0E0,0E0,0E0,0E0],"parents":[2147483647,0,0,1,1,2,2,3,3,4,4,5,5,6,6,7,7,8,8,9,9,10,10,11,11,12,12,15,15,16,16,17,17,18,18,20,20,21,21,22,22,23,23,24,24,25,25,26,26],"right_children":[2,4,6,8,10,12,14,16,18,20,22,24,26,-1,-1,28,30,32,34,-1,36,38,40,42,44,46,48,-1,-1,-1,-1,-1,-1,-1,-1,-1,-1,-1,-1,-1,-1,-1,-1,-1,-1,-1,-1,-1,-1],"split_conditions":[-4.79987E-1,-6.941726E-1,9.268908E-1,-2.6441646E-1,-1.3198239E-1,-2.4312052E-1,1.2429614E0,-1.7120966E-1,-4.693209E-2,-1.0481689E0,-1.0710877E0,-9.845811E-2,-1.2746225E-1,1.9617908E-1,-1.0701144E-1,-1.6668288E-1,-1.3661063E-1,-1.5859854E-1,-1.4891218E-1,-1.06273346E-1,-1.5565173E-1,-1.0677101E-1,-1.538384E-1,-7.6189846E-1,-1.7590861E-1,-1.4889069E-1,-2.5925106E-1,-7.7674403E-3,2.113045E-1,-9.966545E-2,-5.2275946E-3,1.986994E-1,-5.905458E-2,-1.6918961E-2,-7.4065246E-2,1.6791728E-1,-3.464269E-2,-1.0781415E-1,-8.169218E-3,6.9512525E-3,-9.4253704E-2,1.5025096E-2,-7.859489E-2,-5.7922967E-2,1.5786313E-1,5.286442E-2,-8.82107E-2,3.1522926E-2,-1.02196254E-1],"split_indices":[52,89,45,76,162,46,45,17,3,138,99,153,126,0,0,99,124,79,22,0,30,141,0,88,18,22,84,0,0,0,0,0,0,0,0,0,0,0,0,0,0,0,0,0,0,0,0,0,0],"split_type":[0,0,0,0,0,0,0,0,0,0,0,0,0,0,0,0,0,0,0,0,0,0,0,0,0,0,0,0,0,0,0,0,0,0,0,0,0,0,0,0,0,0,0,0,0,0,0,0,0],"sum_hessian":[2.1290676E3,8.2637195E2,1.3026957E3,4.7537662E2,3.5099536E2,1.0182134E3,2.8448227E2,1.7435385E1,4.5794122E2,1.1456498E2,2.3643039E2,1.10323044E2,9.078903E2,8.624477E1,1.982375E2,7.5174108E0,9.9179735E0,4.553398E2,2.60142E0,1.4838777E1,9.9726204E1,1.1466271E2,1.2176768E2,7.862772E1,3.169532E1,6.4085205E1,8.438051E2,3.6390893E0,3.8783212E0,8.907387E0,1.0105866E0,4.5426047E2,1.0793293E0,1.0058149E0,1.595605E0,8.6091484E1,1.3634715E1,1.13602486E2,1.0602256E0,5.035886E1,7.140882E1,6.4758816E0,7.215185E1,1.3568546E1,1.8126774E1,1.4502373E1,4.9582832E1,1.9189318E0,8.4188617E2],"tree_param":{"num_deleted":"0","num_feature":"165","num_nodes":"49","size_leaf_vector":"1"}},{"base_weights":[-4.356966E-2,9.573577E-1,-7.207503E-1,1.7588673E0,-7.601189E-2,-9.193587E-1,-2.0855545E-1,1.7842253E0,-2.7075356E-1,-1.0466622E0,4.0758213E-1,-1.5451348E-1,-1.0031121E0,-8.265015E-1,8.034377E-1,4.094368E-2,1.8026816E0,-8.861051E-2,1.182027E-1,-1.0628799E0,3.402246E-2,1.0007868E0,-7.055976E-1,-5.7482344E-1,1.203487E0,2.53919E-1,-1.011406E0,3.0053884E-1,-8.999869E-1,1.7877619E-1,-1.04432546E-1,-7.840639E-2,1.624915E-1,1.8099278E-1,-6.347293E-2,-1.0711455E-1,-1.8320337E-2,1.3958375E-1,-4.2670122E-3,1.7926646E-2,-1.0827994E-1,-1.0263693E-1,-1.4399426E-2,-4.464191E-2,2.005419E-1,-8.523555E-2,2.2483508E-1,-7.257253E-2,-1.0333752E-1,1.4678371E-1,-7.157952E-2,1.12713866E-1,-9.228767E-2],"categories":[],"categories_nodes":[],"categories_segments":[],"categories_sizes":[],"default_left":[0,0,0,0,0,0,0,0,0,0,0,0,0,0,0,0,0,0,0,0,0,0,0,0,0,0,0,0,0,0,0,0,0,0,0,0,0,0,0,0,0,0,0,0,0,0,0,0,0,0,0,0,0],"id":6,"left_children":[1,3,5,7,9,11,13,15,17,19,21,23,25,27,29,31,33,-1,-1,35,-1,37,39,41,43,45,47,49,51,-1,-1,-1,-1,-1,-1,-1,-1,-1,-1,-1,-1,-1,-1,-1,-1,-1,-1,-1,-1,-1,-1,-1,-1],"loss_changes":[1.3736185E3,6.774913E2,1.2276758E2,2.4189941E1,1.6856322E2,5.5620605E1,2.1267822E2,1.4567749E1,6.9048567E0,3.047058E0,1.5905658E2,5.041637E1,8.436523E0,1.7744766E1,2.3656549E2,8.84111E0,9.1015625E0,0E0,0E0,6.6360474E-1,0E0,6.471602E1,2.8214378E1,1.292585E1,2.8566278E1,1.5026789E1,4.1431885E0,1.7261738E1,1.0242493E1,0E0,0E0,0E0,0E0,0E0,0E0,0E0,0E0,0E0,0E0,0E0,0E0,0E0,0E0,0E0,0E0,0E0,0E0,0E0,0E0,0E0,0E0,0E0,0E0],"parents":[2147483647,0,0,1,1,2,2,3,3,4,4,5,5,6,6,7,7,8,8,9,9,10,10,11,11,12,12,13,13,14,14,15,15,16,16,19,19,21,21,22,22,23,23,24,24,25,25,26,26,27,27,28,28],"right_children":[2,4,6,8,10,12,14,16,18,20,22,24,26,28,30,32,34,-1,-1,36,-1,38,40,42,44,46,48,50,52,-1,-1,-1,-1,-1,-1,-1,-1,-1,-1,-1,-1,-1,-1,-1,-1,-1,-1,-1,-1,-1,-1,-1,-1],"split_conditions":[-4.79987E-1,-6.942105E-1,2.6893966E-2,-1.488998E-1,-1.0943644E0,-2.3581812E-1,9.268908E-1,-1.7007875E-1,-2.644083E-1,-4.6390307E-1,-1.4890607E-1,-7.478686E-2,-1.7109817E-1,-1.2780116E-1,-1.2523562E-1,1.746131E0,1.9005327E0,-8.861051E-2,1.182027E-1,-2.9170442E-1,3.402246E-2,2.4881168E-1,-1.4252931E-1,-1.6358133E-1,-1.6568115E-1,-2.9916223E-2,-2.3571372E-1,-2.0250192E-1,-2.3589316E-1,1.7877619E-1,-1.04432546E-1,-7.840639E-2,1.624915E-1,1.8099278E-1,-6.347293E-2,-1.0711455E-1,-1.8320337E-2,1.3958375E-1,-4.2670122E-3,1.7926646E-2,-1.0827994E-1,-1.0263693E-1,-1.4399426E-2,-4.464191E-2,2.005419E-1,-8.523555E-2,2.2483508E-1,-7.257253E-2,-1.0333752E-1,1.4678371E-1,-7.157952E-2,1.12713866E-1,-9.228767E-2],"split_indices":[52,89,99,22,102,48,45,1,76,54,22,153,93,126,21,147,113,0,0,87,0,158,1,7,10,41,48,94,48,0,0,0,0,0,0,0,0,0,0,0,0,0,0,0,0,0,0,0,0,0,0,0,0],"split_type":[0,0,0,0,0,0,0,0,0,0,0,0,0,0,0,0,0,0,0,0,0,0,0,0,0,0,0,0,0,0,0,0,0,0,0,0,0,0,0,0,0,0,0,0,0,0,0,0,0,0,0,0,0],"sum_hessian":[2.02454E3,8.1681226E2,1.2077279E3,4.5961798E2,3.5719424E2,8.696989E2,3.380289E2,4.540658E2,5.5521793E0,1.183941E2,2.3880016E2,8.6116714E1,7.835822E2,2.0998846E2,1.2804044E2,4.790588E0,4.492752E2,4.1741886E0,1.3779905E0,1.1725656E2,1.1375312E0,1.5584993E2,8.2950226E1,6.620313E1,1.9913586E1,4.9420147E0,7.786402E2,1.2664488E1,1.9732397E2,8.3559715E1,4.4480724E1,3.4819984E0,1.3085893E0,4.4820016E2,1.0750417E0,1.15949425E2,1.3071408E0,1.1280461E2,4.3045322E1,2.494871E1,5.8001514E1,3.1649466E1,3.4553665E1,6.6582103E0,1.3255375E1,3.5471232E0,1.3948914E0,5.8032898E1,7.206073E2,5.687701E0,6.976787E0,1.6645918E0,1.956594E2],"tree_param":{"num_deleted":"0","num_feature":"165","num_nodes":"53","size_leaf_vector":"1"}},{"base_weights":[-4.2600274E-2,8.824494E-1,-7.078024E-1,1.5946311E0,-9.232016E-2,-4.3279698E-1,-1.06111206E-1,-6.480039E-2,1.6581669E0,9.040811E-1,-6.6863954E-1,-7.355053E-1,1.652622E-1,1.3675913E0,-6.7170167E-1,1.6763693E0,-5.89384E-1,-1.0458149E-1,1.1411701E0,-7.105561E-1,2.3454332E0,-6.90553E-2,-8.799314E-1,5.046585E-3,1.7726241E-1,-9.3948536E-2,7.473705E-2,6.361302E-4,1.6863519E-1,-8.574565E-2,1.50105795E-2,1.6831306E-1,5.271433E-2,-4.5051962E-2,-1.0562948E-1,3.0215248E-1,4.337539E-2,1.3819979E-1,-3.8275592E-2,8.320749E-2,-8.997061E-2],"categories":[],"categories_nodes":[],"categories_segments":[],"categories_sizes":[],"default_left":[0,0,0,0,0,0,0,0,0,0,0,0,0,0,0,0,0,0,0,0,0,0,0,0,0,0,0,0,0,0,0,0,0,0,0,0,0,0,0,0,0],"id":7,"left_children":[1,3,5,7,9,11,-1,13,15,17,19,21,-1,23,25,27,29,-1,31,33,35,37,39,-1,-1,-1,-1,-1,-1,-1,-1,-1,-1,-1,-1,-1,-1,-1,-1,-1,-1],"loss_changes":[1.1778914E3,5.5602356E2,1.07726135E2,4.8895508E1,1.9526775E2,3.9752768E2,0E0,1.6589216E1,1.9222534E1,5.881765E1,2.8872826E1,5.277365E1,0E0,2.948207E0,5.7684383E0,7.36438E0,9.8521197E-1,0E0,3.6254898E1,1.8687874E1,2.807457E0,4.5526356E1,1.6018951E1,0E0,0E0,0E0,0E0,0E0,0E0,0E0,0E0,0E0,0E0,0E0,0E0,0E0,0E0,0E0,0E0,0E0,0E0],"parents":[2147483647,0,0,1,1,2,2,3,3,4,4,5,5,7,7,8,8,9,9,10,10,11,11,13,13,14,14,15,15,16,16,18,18,19,19,20,20,21,21,22,22],"right_children":[2,4,6,8,10,12,-1,14,16,18,20,22,-1,24,26,28,30,-1,32,34,36,38,40,-1,-1,-1,-1,-1,-1,-1,-1,-1,-1,-1,-1,-1,-1,-1,-1,-1,-1],"split_conditions":[-4.79987E-1,-6.941726E-1,-1.5679885E-1,-2.6441646E-1,-1.3198239E-1,9.268908E-1,-1.06111206E-1,-4.2452583E-1,-1.07012466E-1,-1.0481689E0,-6.658476E-2,-2.3487744E-1,1.652622E-1,7.874347E-1,-2.2719653E-1,-1.7007875E-1,-1.5678531E-1,-1.0458149E-1,-1.8305768E-1,-2.2710646E-2,-1.065819E0,-1.8871373E-1,-1.7109817E-1,5.046585E-3,1.7726241E-1,-9.3948536E-2,7.473705E-2,6.361302E-4,1.6863519E-1,-8.574565E-2,1.50105795E-2,1.6831306E-1,5.271433E-2,-4.5051962E-2,-1.0562948E-1,3.0215248E-1,4.337539E-2,1.3819979E-1,-3.8275592E-2,8.320749E-2,-8.997061E-2],"split_indices":[52,89,58,76,162,45,0,143,1,138,123,42,0,112,39,1,106,0,131,13,151,131,93,0,0,0,0,0,0,0,0,0,0,0,0,0,0,0,0,0,0],"split_type":[0,0,0,0,0,0,0,0,0,0,0,0,0,0,0,0,0,0,0,0,0,0,0,0,0,0,0,0,0,0,0,0,0,0,0,0,0,0,0,0,0],"sum_hessian":[1.9121816E3,7.997287E2,1.1124529E3,4.6173907E2,3.3798962E2,6.267977E2,4.8565515E2,1.702627E1,4.4471283E2,1.2364702E2,2.1434262E2,5.4791296E2,7.888481E1,4.6940656E0,1.2332204E1,4.413922E2,3.320604E0,1.303467E1,1.1061235E2,2.1215642E2,2.186191E0,9.7852715E1,4.5006024E2,1.3684858E0,3.32558E0,1.065881E1,1.6733947E0,2.632505E0,4.387597E2,2.3200417E0,1.0005624E0,5.782923E1,5.2783115E1,1.22400116E2,8.97563E1,1.1861371E0,1.0000539E0,1.6788834E1,8.106388E1,4.670034E0,4.453902E2],"tree_param":{"num_deleted":"0","num_feature":"165","num_nodes":"41","size_leaf_vector":"1"}},{"base_weights":[-5.4658078E-2,8.037813E-1,-6.977679E-1,1.5385303E0,-9.723278E-3,-4.2927626E-1,-1.0546585E-1,4.6693018E-1,1.5479076E0,9.167249E-1,-6.47461E-1,-7.249219E-1,1.5490983E-1,1.07772805E-1,-8.040628E-2,1.5523587E0,3.0054474E-2,-9.589912E-1,1.1024293E0,-9.129775E-1,-5.6644592E-2,-1.0111234E0,-4.077862E-1,1.5544997E-1,4.431219E-2,-9.396235E-3,-1.0212027E-1,1.3110374E-1,-2.1512533E-2,-5.3184863E-2,-9.983054E-2,-8.8002905E-2,3.1890236E-2,-3.171579E-2,-1.0346688E-1,3.5528682E-2,-6.881491E-2],"categories":[],"categories_nodes":[],"categories_segments":[],"categories_sizes":[],"default_left":[0,0,0,0,0,0,0,0,0,0,0,0,0,0,0,0,0,0,0,0,0,0,0,0,0,0,0,0,0,0,0,0,0,0,0,0,0],"id":8,"left_children":[1,3,5,7,9,11,-1,13,15,17,19,21,-1,-1,-1,23,-1,25,27,29,31,33,35,-1,-1,-1,-1,-1,-1,-1,-1,-1,-1,-1,-1,-1,-1],"loss_changes":[9.9771674E2,4.6268747E2,9.854596E1,3.3642578E0,2.182182E2,3.469615E2,0E0,4.7172604E0,1.7697144E0,5.3511772E1,3.4263504E1,4.633957E1,0E0,0E0,0E0,2.6361084E-1,0E0,6.6287136E-1,3.807109E1,4.375038E0,2.158322E1,4.084778E0,5.2876427E1,0E0,0E0,0E0,0E0,0E0,0E0,0E0,0E0,0E0,0E0,0E0,0E0,0E0,0E0],"parents":[2147483647,0,0,1,1,2,2,3,3,4,4,5,5,7,7,8,8,9,9,10,10,11,11,15,15,17,17,18,18,19,19,20,20,21,21,22,22],"right_children":[2,4,6,8,10,12,-1,14,16,18,20,22,-1,-1,-1,24,-1,26,28,30,32,34,36,-1,-1,-1,-1,-1,-1,-1,-1,-1,-1,-1,-1,-1,-1],"split_conditions":[-4.79987E-1,-4.3874547E-2,-1.5678655E-1,-1.6363677E-1,-1.3198239E-1,9.268908E-1,-1.0546585E-1,-4.673792E-1,1.6904013E0,-1.0113887E0,8.870579E-1,-5.6489408E-2,1.5490983E-1,1.07772805E-1,-8.040628E-2,2.7270856E-1,3.0054474E-2,-6.0563105E-1,-1.5683034E-1,-1.3264933E0,-4.1401184E-1,-1.2814006E-1,-2.430531E-1,1.5544997E-1,4.431219E-2,-9.396235E-3,-1.0212027E-1,1.3110374E-1,-2.1512533E-2,-5.3184863E-2,-9.983054E-2,-8.8002905E-2,3.1890236E-2,-3.171579E-2,-1.0346688E-1,3.5528682E-2,-6.881491E-2],"split_indices":[52,4,64,7,162,45,0,54,88,135,19,15,0,0,0,130,0,154,17,85,51,126,46,0,0,0,0,0,0,0,0,0,0,0,0,0,0],"split_type":[0,0,0,0,0,0,0,0,0,0,0,0,0,0,0,0,0,0,0,0,0,0,0,0,0,0,0,0,0,0,0,0,0,0,0,0,0],"sum_hessian":[1.8052102E3,7.730601E2,1.03215E3,4.057235E2,3.6733658E2,5.902802E2,4.418698E2,3.960197E0,4.017633E2,1.4958925E2,2.1774733E2,5.1408905E2,7.61912E1,2.7774858E0,1.1827112E0,4.000911E2,1.6722063E0,1.3100717E1,1.3648854E2,1.498559E2,6.789144E1,2.690734E2,2.4501564E2,3.9891974E2,1.1713487E0,1.0473973E0,1.2053319E1,1.1783647E2,1.865207E1,2.8735912E1,1.2111998E2,2.084518E1,4.704626E1,9.304593E0,2.597688E2,6.576194E1,1.792537E2],"tree_param":{"num_deleted":"0","num_feature":"165","num_nodes":"37","size_leaf_vector":"1"}},{"base_weights":[-5.4862708E-2,7.308158E-1,-7.0934224E-1,1.4399691E0,-1.276602E-1,-9.904862E-1,-3.020562E-1,-5.759519E-1,1.4673855E0,6.8334246E-1,-6.669918E-1,-7.507693E-1,-1.015551E0,-7.103611E-1,8.891696E-1,-9.200838E-2,5.1824696E-2,1.4863639E0,-2.73325E-1,1.1336238E0,-1.2164162E-1,-2.1725506E-1,-8.9783144E-1,-8.1284887E-1,6.879011E-2,-1.0192615E0,-5.439438E-1,3.0458057E-1,-8.540932E-1,1.4734165E-1,-1.00495234E-1,1.4927916E-1,-3.4678675E-2,1.1868419E-1,-8.827608E-2,1.7775017E-1,3.0054653E-2,-5.628508E-2,1.6688769E-1,-1.0388255E-1,3.2042045E-2,-1.02208726E-1,-4.4539277E-2,1.286235E-4,-8.728733E-2,-4.2002793E-2,-1.02115825E-1,-8.424225E-2,4.7294475E-2,2.137057E-1,-4.909231E-2,6.735825E-2,-8.893343E-2],"categories":[],"categories_nodes":[],"categories_segments":[],"categories_sizes":[],"default_left":[0,0,0,0,0,0,0,0,0,0,0,0,0,0,0,0,0,0,0,0,0,0,0,0,0,0,0,0,0,0,0,0,0,0,0,0,0,0,0,0,0,0,0,0,0,0,0,0,0,0,0,0,0],"id":9,"left_children":[1,3,5,7,9,11,13,15,17,19,21,23,25,27,29,-1,-1,31,33,35,37,39,41,43,-1,45,47,49,51,-1,-1,-1,-1,-1,-1,-1,-1,-1,-1,-1,-1,-1,-1,-1,-1,-1,-1,-1,-1,-1,-1,-1,-1],"loss_changes":[8.7348785E2,4.7017462E2,1.0581143E2,2.4216003E1,1.5361278E2,2.5289917E0,1.8539943E2,2.88364E0,1.4197571E1,5.100953E1,2.1690224E1,5.533066E0,3.085022E-1,4.161212E1,1.0928312E2,0E0,0E0,5.385315E0,5.805913E0,4.779528E1,4.1424652E1,3.2500698E1,7.3582687E0,2.6324615E0,0E0,1.2585449E-1,2.217659E0,5.3383213E1,1.3981064E1,0E0,0E0,0E0,0E0,0E0,0E0,0E0,0E0,0E0,0E0,0E0,0E0,0E0,0E0,0E0,0E0,0E0,0E0,0E0,0E0,0E0,0E0,0E0,0E0],"parents":[2147483647,0,0,1,1,2,2,3,3,4,4,5,5,6,6,7,7,8,8,9,9,10,10,11,11,12,12,13,13,14,14,17,17,18,18,19,19,20,20,21,21,22,22,23,23,25,25,26,26,27,27,28,28],"right_children":[2,4,6,8,10,12,14,16,18,20,22,24,26,28,30,-1,-1,32,34,36,38,40,42,44,-1,46,48,50,52,-1,-1,-1,-1,-1,-1,-1,-1,-1,-1,-1,-1,-1,-1,-1,-1,-1,-1,-1,-1,-1,-1,-1,-1],"split_conditions":[-4.6095642E-1,-6.942105E-1,-1.2642883E-1,-1.7007875E-1,-1.3198239E-1,-2.4308199E-1,6.383794E-1,1.7826644E-1,-1.257131E-1,-1.3134078E0,-1.3134078E0,7.36169E-2,7.241854E-1,-2.4309163E-1,-1.2523562E-1,-9.200838E-2,5.1824696E-2,-9.7865134E-2,-1.5671173E-1,-7.0665866E-2,-3.0015802E-2,-1.6913912E-1,1.1255896E0,-9.314473E-2,6.879011E-2,-1.4944491E0,-3.3292213E-1,-1.1684027E0,-1.7109817E-1,1.4734165E-1,-1.00495234E-1,1.4927916E-1,-3.4678675E-2,1.1868419E-1,-8.827608E-2,1.7775017E-1,3.0054653E-2,-5.628508E-2,1.6688769E-1,-1.0388255E-1,3.2042045E-2,-1.02208726E-1,-4.4539277E-2,1.286235E-4,-8.728733E-2,-4.2002793E-2,-1.02115825E-1,-8.424225E-2,4.7294475E-2,2.137057E-1,-4.909231E-2,6.735825E-2,-8.893343E-2],"split_indices":[52,89,1,1,162,46,39,129,0,79,79,129,101,46,21,0,0,47,1,163,70,1,85,123,0,102,143,138,93,0,0,0,0,0,0,0,0,0,0,0,0,0,0,0,0,0,0,0,0,0,0,0,0],"split_type":[0,0,0,0,0,0,0,0,0,0,0,0,0,0,0,0,0,0,0,0,0,0,0,0,0,0,0,0,0,0,0,0,0,0,0,0,0,0,0,0,0,0,0,0,0,0,0,0,0,0,0,0,0],"sum_hessian":[1.6966888E3,7.710069E2,9.256819E2,4.218532E2,3.491537E2,5.468009E2,3.7888098E2,5.3917603E0,4.1646146E2,1.3934743E2,2.0980626E2,5.4691307E1,4.9210962E2,2.824664E2,9.6414604E1,4.222793E0,1.1689675E0,4.121144E2,4.347042E0,8.909973E1,5.0247692E1,7.182103E1,1.3798523E2,5.2845966E1,1.8453379E0,4.8711578E2,4.9938164E0,3.490079E1,2.475656E2,7.385572E1,2.2558884E1,4.1085947E2,1.2549345E0,1.0010798E0,3.3459625E0,4.961731E1,3.9482426E1,4.0863895E1,9.383796E0,2.8041471E1,4.3779556E1,1.07266846E2,3.0718376E1,3.6958752E0,4.9150093E1,2.238902E0,4.848769E2,3.9932737E0,1.0005428E0,1.0054168E1,2.4846622E1,5.1737447E0,2.4239186E2],"tree_param":{"num_deleted":"0","num_feature":"165","num_nodes":"53","size_leaf_vector":"1"}},{"base_weights":[-5.2283887E-2,6.879835E-1,-6.5919304E-1,1.3517382E0,-1.18559696E-1,-3.7305394E-1,-1.0386035E0,-4.2713255E-1,1.3803843E0,-1.0101637E0,2.4372883E-1,-6.631862E-1,1.401905E-1,-2.0581743E-2,-1.0410273E0,-9.830769E-2,9.3158096E-2,1.4056563E0,-2.4606079E-1,-1.0413477E0,9.2131935E-2,6.016487E-1,-9.1532815E-1,-1.0095634E0,-2.8891557E-1,-1.0436844E-1,-2.7104227E-2,-6.351487E-2,1.413098E-1,1.2491476E-1,-9.186402E-2,-1.0505247E-1,-1.04774255E-2,1.0235832E-1,-6.466226E-3,-1.00745164E-1,-2.0364491E-2,-1.0227131E-1,1.8392451E-2,2.314915E-2,-8.065657E-2],"categories":[],"categories_nodes":[],"categories_segments":[],"categories_sizes":[],"default_left":[0,0,0,0,0,0,0,0,0,0,0,0,0,0,0,0,0,0,0,0,0,0,0,0,0,0,0,0,0,0,0,0,0,0,0,0,0,0,0,0,0],"id":10,"left_children":[1,3,5,7,9,11,13,15,17,19,21,23,-1,-1,25,-1,-1,27,29,31,-1,33,35,37,39,-1,-1,-1,-1,-1,-1,-1,-1,-1,-1,-1,-1,-1,-1,-1,-1],"loss_changes":[7.128179E2,3.8282782E2,9.425696E1,2.0574768E1,1.0477858E2,2.576636E2,5.411377E-1,6.187726E0,1.6220581E1,6.6028595E0,9.634602E1,5.534619E1,0E0,0E0,4.8007202E-1,0E0,0E0,6.675415E0,7.94594E0,6.864853E-1,0E0,4.983809E1,3.3928947E0,3.6798859E0,5.613421E1,0E0,0E0,0E0,0E0,0E0,0E0,0E0,0E0,0E0,0E0,0E0,0E0,0E0,0E0,0E0,0E0],"parents":[2147483647,0,0,1,1,2,2,3,3,4,4,5,5,6,6,7,7,8,8,9,9,10,10,11,11,14,14,17,17,18,18,19,19,21,21,22,22,23,23,24,24],"right_children":[2,4,6,8,10,12,14,16,18,20,22,24,-1,-1,26,-1,-1,28,30,32,-1,34,36,38,40,-1,-1,-1,-1,-1,-1,-1,-1,-1,-1,-1,-1,-1,-1,-1,-1],"split_conditions":[-4.5589343E-1,-6.942105E-1,-1.6549833E-1,-1.7007875E-1,-1.0934875E0,9.268908E-1,-4.3377727E-1,-4.1080102E-1,-1.6128202E-1,-4.0967813E-1,-1.4889513E-1,-5.6489408E-2,1.401905E-1,-2.0581743E-2,8.021635E0,-9.830769E-2,9.3158096E-2,-2.3455562E-1,-1.5515862E-1,-2.9991424E-2,9.2131935E-2,-1.3134078E0,4.855706E-2,-1.4645167E-2,-1.4888348E-1,-1.0436844E-1,-2.7104227E-2,-6.351487E-2,1.413098E-1,1.2491476E-1,-9.186402E-2,-1.0505247E-1,-1.04774255E-2,1.0235832E-1,-6.466226E-3,-1.00745164E-1,-2.0364491E-2,-1.0227131E-1,1.8392451E-2,2.314915E-2,-8.065657E-2],"split_indices":[54,89,58,1,102,45,54,51,17,51,28,15,0,0,5,0,0,49,1,70,0,79,15,72,28,0,0,0,0,0,0,0,0,0,0,0,0,0,0,0,0],"split_type":[0,0,0,0,0,0,0,0,0,0,0,0,0,0,0,0,0,0,0,0,0,0,0,0,0,0,0,0,0,0,0,0,0,0,0,0,0,0,0,0,0],"sum_hessian":[1.584586E3,7.1380304E2,8.707831E2,3.911913E2,3.2261172E2,4.9753873E2,3.7324432E2,5.9792504E0,3.8521207E2,9.269587E1,2.2991585E2,4.2817606E2,6.9362686E1,1.3324852E0,3.7191183E2,4.4392915E0,1.5399588E0,3.794518E2,5.760252E0,9.167659E1,1.0192795E0,1.7603629E2,5.3879555E1,2.2149297E2,2.0668309E2,3.7027863E2,1.6332088E0,1.0721607E0,3.7837967E2,1.5212094E0,4.2390428E0,9.066653E1,1.0100614E0,1.0745521E2,6.8581085E1,4.733651E1,6.543043E0,2.1922073E2,2.2722418E0,1.0334275E2,1.0334033E2],"tree_param":{"num_deleted":"0","num_feature":"165","num_nodes":"41","size_leaf_vector":"1"}},{"base_weights":[-5.009976E-2,6.5839E-1,-6.69211E-1,1.302755E0,-1.0279221E-1,-3.9479372E-1,-1.0360154E0,1.5117493E-1,1.3401475E0,6.207135E-1,-6.1950505E-1,-6.92832E-1,1.322688E0,-1.0388406E-1,-3.862205E-1,-6.124966E-1,1.0406852E0,1.3569502E0,-8.498787E-2,9.986726E-1,-2.5678784E-1,-8.9123696E-1,-9.2196025E-2,-1.0068917E0,-3.6740652E-1,-6.667655E-2,1.3851835E-1,-5.478784E-2,-2.6814782E-3,-8.583559E-2,1.9474547E-2,-3.890684E-2,1.7160994E-1,-4.5925606E-2,1.3662569E-1,1.2403585E-1,-5.4288752E-2,-8.07257E-2,1.313411E-1,-4.9555916E-2,-9.886824E-2,-2.11553E-2,2.3106526E-1,-1.0215044E-1,1.2451935E-2,3.8615294E-2,-6.2258214E-2],"categories":[],"categories_nodes":[],"categories_segments":[],"categories_sizes":[],"default_left":[0,0,0,0,0,0,0,0,0,0,0,0,0,0,0,0,0,0,0,0,0,0,0,0,0,0,0,0,0,0,0,0,0,0,0,0,0,0,0,0,0,0,0,0,0,0,0],"id":11,"left_children":[1,3,5,7,9,11,13,15,17,19,21,23,25,-1,27,29,31,33,-1,35,37,39,41,43,45,-1,-1,-1,-1,-1,-1,-1,-1,-1,-1,-1,-1,-1,-1,-1,-1,-1,-1,-1,-1,-1,-1],"loss_changes":[6.553101E2,3.418683E2,7.983908E1,1.6048157E1,1.2014242E2,2.3518562E2,2.2399902E-1,9.465503E0,1.4599182E1,4.468673E1,2.6766579E1,3.9555557E1,9.380638E0,0E0,1.6345471E-1,1.6799064E0,6.822767E0,6.7633057E0,0E0,3.5634903E1,3.6606884E1,4.2733994E0,1.908399E1,3.404358E0,3.743454E1,0E0,0E0,0E0,0E0,0E0,0E0,0E0,0E0,0E0,0E0,0E0,0E0,0E0,0E0,0E0,0E0,0E0,0E0,0E0,0E0,0E0,0E0],"parents":[2147483647,0,0,1,1,2,2,3,3,4,4,5,5,6,6,7,7,8,8,9,9,10,10,11,11,12,12,14,14,15,15,16,16,17,17,19,19,20,20,21,21,22,22,23,23,24,24],"right_children":[2,4,6,8,10,12,14,16,18,20,22,24,26,-1,28,30,32,34,-1,36,38,40,42,44,46,-1,-1,-1,-1,-1,-1,-1,-1,-1,-1,-1,-1,-1,-1,-1,-1,-1,-1,-1,-1,-1,-1],"split_conditions":[-4.6095642E-1,-6.942105E-1,-1.6549833E-1,-2.6441646E-1,-1.3198239E-1,-1.5437813E-1,7.9377728E0,4.902342E-1,-2.3250331E-1,-1.9314311E-1,8.870579E-1,-5.6489408E-2,-2.2719653E-1,-1.0388406E-1,-1.7108954E-1,-1.4086829E-1,-1.4785954E-1,-1.6093291E-1,-8.498787E-2,-1.4445448E-1,-2.9991424E-2,-1.3264933E0,-7.1413845E-2,-1.4645167E-2,-2.4307236E-1,-6.667655E-2,1.3851835E-1,-5.478784E-2,-2.6814782E-3,-8.583559E-2,1.9474547E-2,-3.890684E-2,1.7160994E-1,-4.5925606E-2,1.3662569E-1,1.2403585E-1,-5.4288752E-2,-8.07257E-2,1.313411E-1,-4.9555916E-2,-9.886824E-2,-2.11553E-2,2.3106526E-1,-1.0215044E-1,1.2451935E-2,3.8615294E-2,-6.2258214E-2],"split_indices":[52,89,58,76,162,60,5,114,53,153,19,15,39,0,93,124,141,60,0,0,70,85,123,72,46,0,0,0,0,0,0,0,0,0,0,0,0,0,0,0,0,0,0,0,0,0,0],"split_type":[0,0,0,0,0,0,0,0,0,0,0,0,0,0,0,0,0,0,0,0,0,0,0,0,0,0,0,0,0,0,0,0,0,0,0,0,0,0,0,0,0,0,0,0,0,0,0],"sum_hessian":[1.4919751E3,6.957356E2,7.962395E2,3.763943E2,3.1934128E2,4.5666855E2,3.3957095E2,1.1995981E1,3.6439832E2,1.3296346E2,1.8637782E2,3.896486E2,6.701996E1,3.375048E2,2.0661547E0,6.622116E0,5.373865E0,3.620013E2,2.3969898E0,9.2838E1,4.0125458E1,1.2254038E2,6.3837437E1,1.9722131E2,1.9242728E2,1.7467142E0,6.527324E1,1.063431E0,1.0027237E0,5.0275664E0,1.5945497E0,1.8601514E0,3.5137136E0,1.5990821E0,3.6040225E2,8.042444E1,1.241356E1,3.006972E1,1.0055738E1,2.5417582E1,9.7122795E1,6.1685295E1,2.1521432E0,1.948025E2,2.4188118E0,4.85477E1,1.4387958E2],"tree_param":{"num_deleted":"0","num_feature":"165","num_nodes":"47","size_leaf_vector":"1"}},{"base_weights":[-4.6555083E-2,6.2716794E-1,-6.687038E-1,1.2238399E0,-1.1982636E-1,-9.501562E-1,-2.8142706E-1,-2.0427142E-1,1.2922245E0,5.4618466E-1,-6.050016E-1,-4.044633E-1,-9.643575E-1,2.8738755E-1,-9.3085265E-1,9.5111585E-1,-5.804032E-1,1.3120884E0,-8.682945E-2,-7.788747E-1,7.538228E-1,-3.7395883E-1,-1.0264555E-1,9.0272677E-1,-7.527483E-1,-7.2625613E-1,-9.903911E-1,-3.9414236E-1,1.3429337E0,2.6113546E-1,-9.5018876E-1,3.3462096E-3,1.2547533E-1,6.5029967E-3,-9.923944E-2,1.3256043E-1,-3.5831336E-2,6.923782E-2,-1.0350728E-1,1.01802014E-1,-2.6631266E-2,-8.608095E-2,-6.044121E-3,-5.461824E-2,1.9237481E-1,-9.3010254E-2,2.2966666E-2,-7.9652E-2,1.173985E-2,-6.666126E-2,-1.00226976E-1,1.5649742E-1,-7.9171225E-2,3.1739137E-1,1.2481647E-1,9.751048E-2,-5.4636996E-2,-5.8928598E-2,-1.0071611E-1],"categories":[],"categories_nodes":[],"categories_segments":[],"categories_sizes":[],"default_left":[0,0,0,0,0,0,0,0,0,0,0,0,0,0,0,0,0,0,0,0,0,0,0,0,0,0,0,0,0,0,0,0,0,0,0,0,0,0,0,0,0,0,0,0,0,0,0,0,0,0,0,0,0,0,0,0,0,0,0],"id":12,"left_children":[1,3,5,7,9,11,13,15,17,19,21,23,25,27,29,31,33,35,-1,37,39,41,-1,43,45,47,49,51,53,55,57,-1,-1,-1,-1,-1,-1,-1,-1,-1,-1,-1,-1,-1,-1,-1,-1,-1,-1,-1,-1,-1,-1,-1,-1,-1,-1,-1,-1],"loss_changes":[5.9064307E2,3.016954E2,7.958237E1,3.7005188E1,9.770456E1,2.8944092E0,1.14686745E2,8.398382E0,1.6552979E1,3.5674633E1,1.6638588E1,6.3579073E0,1.8367615E0,1.19862854E2,3.5868607E0,1.2991343E0,3.8516421E0,8.518799E0,0E0,7.4141912E0,3.0123016E1,1.7422995E1,0E0,5.6052427E0,2.02457E0,2.7249851E0,7.5094604E-1,8.035253E1,7.370987E0,2.318158E0,2.3418884E0,0E0,0E0,0E0,0E0,0E0,0E0,0E0,0E0,0E0,0E0,0E0,0E0,0E0,0E0,0E0,0E0,0E0,0E0,0E0,0E0,0E0,0E0,0E0,0E0,0E0,0E0,0E0,0E0],"parents":[2147483647,0,0,1,1,2,2,3,3,4,4,5,5,6,6,7,7,8,8,9,9,10,10,11,11,12,12,13,13,14,14,15,15,16,16,17,17,19,19,20,20,21,21,23,23,24,24,25,25,26,26,27,27,28,28,29,29,30,30],"right_children":[2,4,6,8,10,12,14,16,18,20,22,24,26,28,30,32,34,36,-1,38,40,42,-1,44,46,48,50,52,54,56,58,-1,-1,-1,-1,-1,-1,-1,-1,-1,-1,-1,-1,-1,-1,-1,-1,-1,-1,-1,-1,-1,-1,-1,-1,-1,-1,-1,-1],"split_conditions":[-4.6095642E-1,-6.941726E-1,-1.2785509E-1,-2.6441646E-1,-1.3198239E-1,-1.2847897E-1,1.0265406E0,-1.8870892E-1,-2.3250331E-1,-1.8022569E-1,-2.4024522E-2,-1.7278634E-1,-2.3922583E-1,9.789853E-1,-7.61956E-1,7.874347E-1,-2.0256303E-1,-1.07012466E-1,-8.682945E-2,-1.8852757E-1,-1.5812935E-1,-1.6913912E-1,-1.0264555E-1,-1.728384E-1,1.4387614E-1,3.825646E0,-7.2084814E-1,-1.2015375E0,-1.8143903E-1,1.392291E-2,-2.369008E-1,3.3462096E-3,1.2547533E-1,6.5029967E-3,-9.923944E-2,1.3256043E-1,-3.5831336E-2,6.923782E-2,-1.0350728E-1,1.01802014E-1,-2.6631266E-2,-8.608095E-2,-6.044121E-3,-5.461824E-2,1.9237481E-1,-9.3010254E-2,2.2966666E-2,-7.9652E-2,1.173985E-2,-6.666126E-2,-1.00226976E-1,1.5649742E-1,-7.9171225E-2,3.1739137E-1,1.2481647E-1,9.751048E-2,-5.4636996E-2,-5.8928598E-2,-1.0071611E-1],"split_indices":[52,89,1,76,162,126,52,131,53,1,4,17,40,52,88,112,106,1,0,131,130,1,0,0,131,43,90,99,108,107,40,0,0,0,0,0,0,0,0,0,0,0,0,0,0,0,0,0,0,0,0,0,0,0,0,0,0,0,0],"split_type":[0,0,0,0,0,0,0,0,0,0,0,0,0,0,0,0,0,0,0,0,0,0,0,0,0,0,0,0,0,0,0,0,0,0,0,0,0,0,0,0,0,0,0,0,0,0,0,0,0,0,0,0,0,0,0,0,0,0,0],"sum_hessian":[1.4071244E3,6.755573E2,7.315671E2,3.752127E2,3.003446E2,4.2282596E2,3.0874112E2,1.7055109E1,3.581576E2,1.2652928E2,1.7381532E2,1.147243E1,4.1135355E2,1.6488245E2,1.4385867E2,3.8131976E0,1.3241912E1,3.552838E2,2.8737836E0,1.6768524E1,1.0976076E2,1.13488014E2,6.0327316E1,2.0786986E0,9.393731E0,4.339184E1,3.679617E2,1.005727E2,6.4309746E1,2.0967638E0,1.4176192E2,1.2240565E0,2.5891411E0,5.4874015E0,7.7545104E0,3.5263687E2,2.6469376E0,2.2344391E0,1.4534085E1,8.718376E1,2.2576998E1,4.377135E1,6.971666E1,1.0515414E0,1.0271571E0,8.002329E0,1.3914022E0,4.010737E1,3.284472E0,1.50432625E1,3.5291843E2,1.6471125E1,8.410158E1,1.5658447E0,6.27439E1,1.0026778E0,1.094086E0,2.0874071E1,1.2088784E2],"tree_param":{"num_deleted":"0","num_feature":"165","num_nodes":"59","size_leaf_vector":"1"}},{"base_weights":[-5.6308728E-2,5.3373355E-1,-6.784587E-1,1.1558849E0,-1.4350301E-1,-9.113065E-1,-1.4698192E-1,-6.826241E-1,1.2188237E0,4.2225072E-1,-5.2465546E-1,-4.6202073E-1,-9.673969E-1,-6.7873335E-1,5.981423E-1,-9.007235E-1,4.6883404E-2,1.255917E0,-2.8632498E-1,-9.318378E-1,5.9578675E-1,-2.0578709E-1,-8.9543897E-1,-7.006367E-1,9.1158175E-1,2.2627445E-1,-9.787603E-1,7.346937E-1,-8.159299E-1,1.2613158E-1,-9.912615E-2,-1.0411932E-2,-9.78686E-2,1.2704925E-1,-3.923542E-2,5.9652995E-2,-6.3696794E-2,-9.790593E-2,-1.2876703E-2,9.839193E-2,3.1153928E-3,-5.6911256E-2,4.361977E-2,-9.6281305E-2,3.8859479E-3,4.543921E-2,-8.248176E-2,2.6019734E-1,-6.917786E-2,-7.597659E-2,1.7578892E-1,-9.835714E-2,-3.1320301E-3,1.6710052E-1,-8.276763E-2,-1.5966287E-2,-9.824197E-2],"categories":[],"categories_nodes":[],"categories_segments":[],"categories_sizes":[],"default_left":[0,0,0,0,0,0,0,0,0,0,0,0,0,0,0,0,0,0,0,0,0,0,0,0,0,0,0,0,0,0,0,0,0,0,0,0,0,0,0,0,0,0,0,0,0,0,0,0,0,0,0,0,0,0,0,0,0],"id":13,"left_children":[1,3,5,7,9,11,13,15,17,19,21,23,25,27,29,31,-1,33,35,37,39,41,43,45,47,49,51,53,55,-1,-1,-1,-1,-1,-1,-1,-1,-1,-1,-1,-1,-1,-1,-1,-1,-1,-1,-1,-1,-1,-1,-1,-1,-1,-1,-1,-1],"loss_changes":[4.8405075E2,2.8533795E2,7.9290436E1,4.1663147E1,7.0293526E1,1.0794647E1,7.834759E1,3.5164833E0,1.9428375E1,3.1421339E1,2.2823101E1,1.7493565E1,5.588257E0,2.2950474E1,8.815882E1,5.627003E-1,0E0,8.510986E0,3.1750522E0,4.545822E-1,2.5619606E1,2.495426E1,5.6822586E0,6.7400894E0,2.3605928E1,8.196997E0,1.7565613E0,1.7071184E1,1.1374229E1,0E0,0E0,0E0,0E0,0E0,0E0,0E0,0E0,0E0,0E0,0E0,0E0,0E0,0E0,0E0,0E0,0E0,0E0,0E0,0E0,0E0,0E0,0E0,0E0,0E0,0E0,0E0,0E0],"parents":[2147483647,0,0,1,1,2,2,3,3,4,4,5,5,6,6,7,7,8,8,9,9,10,10,11,11,12,12,13,13,14,14,15,15,17,17,18,18,19,19,20,20,21,21,22,22,23,23,24,24,25,25,26,26,27,27,28,28],"right_children":[2,4,6,8,10,12,14,16,18,20,22,24,26,28,30,32,-1,34,36,38,40,42,44,46,48,50,52,54,56,-1,-1,-1,-1,-1,-1,-1,-1,-1,-1,-1,-1,-1,-1,-1,-1,-1,-1,-1,-1,-1,-1,-1,-1,-1,-1,-1,-1],"split_conditions":[-2.3927929E-1,-6.941726E-1,2.6573686E-2,-1.6913912E-1,-1.3198239E-1,-2.3477788E-1,8.867613E-1,1.746131E0,1.462479E-1,-1.8305233E-1,-1.0175809E-1,4.82977E-2,-1.7109817E-1,-1.2780116E-1,-1.2523562E-1,-5.7318397E-2,4.6883404E-2,-8.188918E-2,-4.5154095E-1,-1.22887E-1,-1.4929049E-1,-2.9268405E-1,3.801365E-1,-1.2780116E-1,8.9976765E-2,-2.1454595E-1,7.602324E0,-1.7189234E-1,-1.3973361E-1,1.2613158E-1,-9.912615E-2,-1.0411932E-2,-9.78686E-2,1.2704925E-1,-3.923542E-2,5.9652995E-2,-6.3696794E-2,-9.790593E-2,-1.2876703E-2,9.839193E-2,3.1153928E-3,-5.6911256E-2,4.361977E-2,-9.6281305E-2,3.8859479E-3,4.543921E-2,-8.248176E-2,2.6019734E-1,-6.917786E-2,-7.597659E-2,1.7578892E-1,-9.835714E-2,-3.1320301E-3,1.6710052E-1,-8.276763E-2,-1.5966287E-2,-9.824197E-2],"split_indices":[40,89,99,1,162,42,39,147,145,1,161,1,93,126,21,15,0,16,142,126,1,137,161,126,119,42,5,17,27,0,0,0,0,0,0,0,0,0,0,0,0,0,0,0,0,0,0,0,0,0,0,0,0,0,0,0,0],"split_type":[0,0,0,0,0,0,0,0,0,0,0,0,0,0,0,0,0,0,0,0,0,0,0,0,0,0,0,0,0,0,0,0,0,0,0,0,0,0,0,0,0,0,0,0,0,0,0,0,0,0,0,0,0,0,0,0,0],"sum_hessian":[1.3166124E3,6.7581586E2,6.407965E2,3.5186456E2,3.2395132E2,4.4508398E2,1.9571251E2,1.1320966E1,3.405436E2,1.3035477E2,1.9359654E2,5.0423912E1,3.9466006E2,1.1426056E2,8.145195E1,9.7012005E0,1.6197652E0,3.325146E2,8.029006E0,1.4311731E1,1.1604304E2,1.0492102E2,8.867552E1,4.337835E1,7.0455613E0,3.5432785E0,3.911168E2,9.724254E0,1.0453631E2,5.7617615E1,2.3834337E1,1.0730016E0,8.628199E0,3.2982715E2,2.6874547E0,2.0830417E0,5.945964E0,1.3309948E1,1.0017834E0,6.832996E1,4.771307E1,6.7074394E1,3.784663E1,8.26826E1,5.9929247E0,3.9528706E0,3.942548E1,3.1265135E0,3.9190476E0,2.462127E0,1.0811515E0,3.8910278E2,2.0139894E0,6.036883E0,3.6873705E0,2.154996E1,8.298635E1],"tree_param":{"num_deleted":"0","num_feature":"165","num_nodes":"57","size_leaf_vector":"1"}},{"base_weights":[-3.2867715E-2,5.9157705E-1,-5.8022636E-1,1.1887758E0,-7.049704E-2,-3.0080494E-1,-1.02746285E-1,1.2148674E0,-3.5849664E-1,-9.899671E-1,2.3725398E-1,-5.463245E-1,1.2224143E-1,1.2308228E0,-7.043904E-2,6.6681966E-2,-8.823096E-2,-1.01748146E-1,3.9147995E-2,7.189816E-1,-4.078848E-1,-9.423537E-1,-1.8385395E-1,-4.2133912E-2,1.239078E-1,-7.7428855E-2,6.422943E-2,1.052015E-1,-3.685324E-2,6.741836E-2,-8.431931E-2,5.7993466E-3,-9.8958805E-2,3.0337578E-2,-7.405171E-2],"categories":[],"categories_nodes":[],"categories_segments":[],"categories_sizes":[],"default_left":[0,0,0,0,0,0,0,0,0,0,0,0,0,0,0,0,0,0,0,0,0,0,0,0,0,0,0,0,0,0,0,0,0,0,0],"id":14,"left_children":[1,3,5,7,9,11,-1,13,15,17,19,21,-1,23,25,-1,-1,-1,-1,27,29,31,33,-1,-1,-1,-1,-1,-1,-1,-1,-1,-1,-1,-1],"loss_changes":[4.2375027E2,2.2906836E2,8.2249115E1,1.2730164E1,7.8219154E1,1.5325803E2,0E0,6.2332153E0,3.7154388E0,3.0325623E0,6.471506E1,5.036615E1,0E0,4.560547E0,2.8154163E0,0E0,0E0,0E0,0E0,4.3500282E1,4.260962E1,7.9957275E0,5.041887E1,0E0,0E0,0E0,0E0,0E0,0E0,0E0,0E0,0E0,0E0,0E0,0E0],"parents":[2147483647,0,0,1,1,2,2,3,3,4,4,5,5,7,7,8,8,9,9,10,10,11,11,13,13,14,14,19,19,20,20,21,21,22,22],"right_children":[2,4,6,8,10,12,-1,14,16,18,20,22,-1,24,26,-1,-1,-1,-1,28,30,32,34,-1,-1,-1,-1,-1,-1,-1,-1,-1,-1,-1,-1],"split_conditions":[-4.79987E-1,-6.942105E-1,-1.5679885E-1,-1.4889461E-1,-1.0716642E0,9.268908E-1,-1.02746285E-1,-1.1680335E-1,-2.0589098E-1,-4.0967813E-1,-1.3134078E0,-5.6489408E-2,1.2224143E-1,-1.7114241E-1,3.5332832E-1,6.6681966E-2,-8.823096E-2,-1.01748146E-1,3.9147995E-2,-1.9314311E-1,-1.065819E0,-1.2814006E-1,-1.488852E-1,-4.2133912E-2,1.239078E-1,-7.7428855E-2,6.422943E-2,1.052015E-1,-3.685324E-2,6.741836E-2,-8.431931E-2,5.7993466E-3,-9.8958805E-2,3.0337578E-2,-7.405171E-2],"split_indices":[52,89,58,28,99,45,0,95,106,51,79,15,0,16,114,0,0,0,0,153,151,126,28,0,0,0,0,0,0,0,0,0,0,0,0],"split_type":[0,0,0,0,0,0,0,0,0,0,0,0,0,0,0,0,0,0,0,0,0,0,0,0,0,0,0,0,0,0,0,0,0,0,0],"sum_hessian":[1.2377738E3,5.781362E2,6.596376E2,3.035421E2,2.7459415E2,4.0701688E2,2.5262073E2,2.9871964E2,4.8224707E0,6.8304245E1,2.062899E2,3.5107095E2,5.5945908E1,2.9509875E2,3.620877E0,1.5383261E0,3.2841446E0,6.7228714E1,1.0755305E0,1.1803686E2,8.825304E1,1.6700465E2,1.840663E2,1.2183731E0,2.9388037E2,1.778339E0,1.8425379E0,9.038927E1,2.7647589E1,2.5160793E1,6.3092247E1,7.519781E0,1.5948486E2,9.839727E1,8.566903E1],"tree_param":{"num_deleted":"0","num_feature":"165","num_nodes":"35","size_leaf_vector":"1"}},{"base_weights":[-3.6555406E-2,5.4529476E-1,-6.1905617E-1,1.1486893E0,-4.2973034E-2,-3.5306424E-1,-1.019677E0,-4.7080186E-1,1.1796503E0,4.6813136E-1,-6.0956025E-1,-6.023318E-1,1.192282E-1,-1.02384865E-1,-1.9800534E-2,8.694407E-2,-9.1061854E-1,1.1922656E0,-4.1126054E-2,9.103394E-1,-6.1353457E-1,1.20690696E-1,-8.935915E-1,-9.713784E-1,-2.7699524E-1,-2.4285363E-2,-1.018816E-1,1.2008395E-1,-1.652166E-2,-6.999193E-2,1.1539882E-1,-8.464353E-2,9.953399E-2,9.665262E-2,-6.5887496E-2,-9.2667975E-2,2.2645023E-2,4.3618128E-2,-1.00411035E-1,2.2857068E-1,-3.4879573E-2],"categories":[],"categories_nodes":[],"categories_segments":[],"categories_sizes":[],"default_left":[0,0,0,0,0,0,0,0,0,0,0,0,0,0,0,0,0,0,0,0,0,0,0,0,0,0,0,0,0,0,0,0,0,0,0,0,0,0,0,0,0],"id":15,"left_children":[1,3,5,7,9,11,13,15,17,19,21,23,-1,-1,-1,-1,25,27,-1,29,31,33,35,37,39,-1,-1,-1,-1,-1,-1,-1,-1,-1,-1,-1,-1,-1,-1,-1,-1],"loss_changes":[3.9595935E2,2.0752005E2,6.1848602E1,1.5024811E1,8.626925E1,1.3645235E2,5.939026E-1,4.404025E0,6.1790466E0,7.5496765E1,2.9405415E1,3.6241295E1,0E0,0E0,0E0,0E0,1.2122965E-1,3.4744263E0,0E0,4.459587E1,1.810181E1,2.7299644E1,3.9831543E0,6.983734E0,3.0792513E1,0E0,0E0,0E0,0E0,0E0,0E0,0E0,0E0,0E0,0E0,0E0,0E0,0E0,0E0,0E0,0E0],"parents":[2147483647,0,0,1,1,2,2,3,3,4,4,5,5,6,6,7,7,8,8,9,9,10,10,11,11,16,16,17,17,19,19,20,20,21,21,22,22,23,23,24,24],"right_children":[2,4,6,8,10,12,14,16,18,20,22,24,-1,-1,-1,-1,26,28,-1,30,32,34,36,38,40,-1,-1,-1,-1,-1,-1,-1,-1,-1,-1,-1,-1,-1,-1,-1,-1],"split_conditions":[-4.6095642E-1,-1.8866219E-1,-1.6549833E-1,-5.7291046E-2,-1.3134078E0,-1.6561584E-1,8.021635E0,-7.208196E-1,-2.2542575E-1,-1.9314311E-1,-1.065819E0,-5.6489408E-2,1.192282E-1,-1.02384865E-1,-1.9800534E-2,8.694407E-2,-2.2959085E-1,1.4732381E0,-4.1126054E-2,-4.140169E-1,-1.7602183E-2,-1.9445197E-1,-1.1958E-1,-1.710975E-1,-3.914642E-2,-2.4285363E-2,-1.018816E-1,1.2008395E-1,-1.652166E-2,-6.999193E-2,1.1539882E-1,-8.464353E-2,9.953399E-2,9.665262E-2,-6.5887496E-2,-9.2667975E-2,2.2645023E-2,4.3618128E-2,-1.00411035E-1,2.2857068E-1,-3.4879573E-2],"split_indices":[52,131,58,15,79,58,5,90,53,153,151,15,0,0,0,0,67,12,0,51,71,130,124,93,63,0,0,0,0,0,0,0,0,0,0,0,0,0,0,0,0],"split_type":[0,0,0,0,0,0,0,0,0,0,0,0,0,0,0,0,0,0,0,0,0,0,0,0,0,0,0,0,0,0,0,0,0,0,0,0,0,0,0,0,0],"sum_hessian":[1.1662732E3,5.834944E2,5.827789E2,2.8757355E2,2.9592084E2,3.5136902E2,2.3140985E2,5.128134E0,2.824454E2,1.5566922E2,1.402516E2,3.0309015E2,4.8278847E1,2.2999611E2,1.4137481E0,1.0257045E0,4.1024294E0,2.8047195E2,1.9734707E0,1.10608505E2,4.5060722E1,3.9435947E1,1.0081566E2,1.4107524E2,1.6201492E2,1.0244356E0,3.0779936E0,2.7882626E2,1.645673E0,1.4290544E1,9.631796E1,3.977656E1,5.28416E0,1.879902E1,2.0636925E1,9.809051E1,2.7251475E0,2.9259555E0,1.3814928E2,3.5751877E0,1.5843974E2],"tree_param":{"num_deleted":"0","num_feature":"165","num_nodes":"41","size_leaf_vector":"1"}},{"base_weights":[-5.9153926E-2,7.56435E-1,-4.3323123E-1,1.1113038E0,-6.653705E-1,-2.18015E-1,-1.0239568E0,-5.671555E-1,1.1566347E0,1.085069E0,-7.7699256E-1,-9.3407947E-1,3.8869243E-2,-4.266618E-3,-1.0287805E-1,-1.0498226E-1,7.7882156E-2,-4.912148E-1,1.1825925E0,1.7098913E-1,-1.8573456E-2,1.0195853E-1,-8.2575995E-1,1.5738152E-1,-9.7855216E-1,-1.1151514E-1,1.1728708E-1,3.214731E-2,-9.46167E-2,1.2089956E-1,-5.9140543E-3,-8.693025E-2,8.933113E-2,1.11609E-1,-8.4133536E-2,-9.8923385E-2,-1.1742482E-2,2.0537881E-2,-6.894835E-2],"categories":[],"categories_nodes":[],"categories_segments":[],"categories_sizes":[],"default_left":[0,0,0,0,0,0,0,0,0,0,0,0,0,0,0,0,0,0,0,0,0,0,0,0,0,0,0,0,0,0,0,0,0,0,0,0,0,0,0],"id":16,"left_children":[1,3,5,7,9,11,13,15,17,19,21,23,25,-1,-1,-1,-1,27,29,-1,-1,-1,31,33,35,37,-1,-1,-1,-1,-1,-1,-1,-1,-1,-1,-1,-1,-1],"loss_changes":[3.3173032E2,1.7325574E2,9.453148E1,2.150351E1,1.4309097E1,1.0075743E2,8.9689636E-1,5.934591E0,1.2006958E1,3.9293575E0,6.5693626E0,7.173416E0,6.90187E1,0E0,0E0,0E0,0E0,2.0970588E0,8.703033E0,0E0,0E0,0E0,5.5817757E0,7.184685E0,1.163208E0,6.563134E1,0E0,0E0,0E0,0E0,0E0,0E0,0E0,0E0,0E0,0E0,0E0,0E0,0E0],"parents":[2147483647,0,0,1,1,2,2,3,3,4,4,5,5,6,6,7,7,8,8,9,9,10,10,11,11,12,12,17,17,18,18,22,22,23,23,24,24,25,25],"right_children":[2,4,6,8,10,12,14,16,18,20,22,24,26,-1,-1,-1,-1,28,30,-1,-1,-1,32,34,36,38,-1,-1,-1,-1,-1,-1,-1,-1,-1,-1,-1,-1,-1],"split_conditions":[-6.942105E-1,-4.201365E-1,-1.6549833E-1,-1.6913912E-1,-2.3253686E0,-3.915103E-2,-1.4890698E-1,1.746131E0,-1.6093285E-1,-2.4297604E-1,-2.794082E0,-4.8814464E-1,9.268908E-1,-4.266618E-3,-1.0287805E-1,-1.0498226E-1,7.7882156E-2,-4.1253787E-1,-1.4050665E-1,1.7098913E-1,-1.8573456E-2,1.0195853E-1,1.0266538E-3,-1.2477095E-1,-1.8274994E-1,-1.4889513E-1,1.1728708E-1,3.214731E-2,-9.46167E-2,1.2089956E-1,-5.9140543E-3,-8.693025E-2,8.933113E-2,1.11609E-1,-8.4133536E-2,-9.8923385E-2,-1.1742482E-2,2.0537881E-2,-6.894835E-2],"split_indices":[89,52,58,1,11,57,28,147,60,46,109,52,45,0,0,0,0,51,16,0,0,0,131,129,42,28,0,0,0,0,0,0,0,0,0,0,0,0,0],"split_type":[0,0,0,0,0,0,0,0,0,0,0,0,0,0,0,0,0,0,0,0,0,0,0,0,0,0,0,0,0,0,0,0,0,0,0,0,0,0,0],"sum_hessian":[1.0852335E3,3.409182E2,7.4431537E2,2.7299878E2,6.791945E1,5.4655914E2,1.977562E2,6.8763914E0,2.6612238E2,3.5486794E0,6.4370766E1,1.4361009E2,4.0294907E2,1.015498E0,1.967407E2,5.2233343E0,1.6530573E0,3.8491364E0,2.6227325E2,2.1473577E0,1.4013218E0,1.175053E0,6.3195713E1,5.5230513E0,1.3808704E2,3.5656522E2,4.638385E1,1.4867408E0,2.3623955E0,2.5683844E2,5.4348073E0,6.2116673E1,1.0790415E0,2.7580066E0,2.7650447E0,1.362482E2,1.8388342E0,2.307126E2,1.2585262E2],"tree_param":{"num_deleted":"0","num_feature":"165","num_nodes":"39","size_leaf_vector":"1"}},{"base_weights":[-4.1823957E-2,4.9067438E-1,-5.8604735E-1,1.1179003E0,-1.47431195E-2,-3.2105756E-1,-1.0178602E-1,1.1340336E0,-7.303543E-2,-9.7147435E-1,2.284103E-1,-5.680294E-1,1.1149424E0,2.1281005E-1,1.152366E0,-1.00211285E-1,-2.6748413E-1,4.5907074E-1,-6.7373675E-1,-9.697928E-1,-2.5789192E-1,-6.757888E-2,1.2046245E0,7.840886E-2,-7.771992E-2,1.16475955E-1,3.47504E-2,4.622608E-2,-6.92818E-2,6.281806E-2,-4.5353528E-2,9.262575E-3,-9.467074E-2,-9.8615125E-2,2.4855813E-2,-3.3314552E-2,2.193001E-1,2.6746374E-1,1.10789455E-1],"categories":[],"categories_nodes":[],"categories_segments":[],"categories_sizes":[],"default_left":[0,0,0,0,0,0,0,0,0,0,0,0,0,0,0,0,0,0,0,0,0,0,0,0,0,0,0,0,0,0,0,0,0,0,0,0,0,0,0],"id":17,"left_children":[1,3,5,7,9,11,-1,13,-1,15,17,19,21,23,25,-1,27,29,31,33,35,-1,37,-1,-1,-1,-1,-1,-1,-1,-1,-1,-1,-1,-1,-1,-1,-1,-1],"loss_changes":[2.9879486E2,1.6523596E2,5.8016006E1,7.763336E0,6.759256E1,1.1321126E2,0E0,3.6552734E0,0E0,1.0018845E0,4.852865E1,3.358087E1,8.349255E0,3.8517578E0,1.8518677E0,0E0,1.505826E0,2.8856972E1,1.0042942E1,2.5953445E0,2.924316E1,0E0,3.4414444E0,0E0,0E0,0E0,0E0,0E0,0E0,0E0,0E0,0E0,0E0,0E0,0E0,0E0,0E0,0E0,0E0],"parents":[2147483647,0,0,1,1,2,2,3,3,4,4,5,5,7,7,9,9,10,10,11,11,12,12,13,13,14,14,16,16,17,17,18,18,19,19,20,20,22,22],"right_children":[2,4,6,8,10,12,-1,14,-1,16,18,20,22,24,26,-1,28,30,32,34,36,-1,38,-1,-1,-1,-1,-1,-1,-1,-1,-1,-1,-1,-1,-1,-1,-1,-1],"split_conditions":[-4.6095642E-1,-4.3874547E-2,-1.6076176E-1,-2.3141915E-1,-1.0943644E0,2.1150132E-1,-1.0178602E-1,-3.915032E-2,-7.303543E-2,-4.0967813E-1,-1.488998E-1,-5.6489408E-2,-1.5437813E-1,-4.1144496E-1,-2.5982118E-1,-1.00211285E-1,-1.628551E-1,-1.3299474E-1,-1.9963893E-1,-1.4645167E-2,-2.6092758E-2,-6.757888E-2,-1.7261493E-1,7.840886E-2,-7.771992E-2,1.16475955E-1,3.47504E-2,4.622608E-2,-6.92818E-2,6.281806E-2,-4.5353528E-2,9.262575E-3,-9.467074E-2,-9.8615125E-2,2.4855813E-2,-3.3314552E-2,2.193001E-1,2.6746374E-1,1.10789455E-1],"split_indices":[52,4,64,53,102,78,0,57,0,51,22,15,60,51,82,0,7,154,106,72,36,0,17,0,0,0,0,0,0,0,0,0,0,0,0,0,0,0,0],"split_type":[0,0,0,0,0,0,0,0,0,0,0,0,0,0,0,0,0,0,0,0,0,0,0,0,0,0,0,0,0,0,0,0,0,0,0,0,0,0,0],"sum_hessian":[1.0290529E3,5.2017914E2,5.088737E2,2.3157788E2,2.886013E2,3.1643256E2,1.9244113E2,2.2995705E2,1.6208458E0,5.7877285E1,2.3072398E2,2.7051263E2,4.5919933E1,4.7329044E0,2.2522414E2,5.5057636E1,2.8196514E0,1.8413547E2,4.6588512E1,1.16921394E2,1.5359123E2,1.8783599E0,4.4041573E1,3.133016E0,1.5998884E0,2.2136827E2,3.8558602E0,1.0063092E0,1.8133422E0,1.5561163E2,2.852384E1,1.2409537E1,3.4178978E1,1.1556038E2,1.361011E0,1.498541E2,3.7371318E0,1.0737137E0,4.296786E1],"tree_param":{"num_deleted":"0","num_feature":"165","num_nodes":"39","size_leaf_vector":"1"}},{"base_weights":[-3.1131433E-2,4.8532704E-1,-5.3036135E-1,1.0644473E0,-3.5822112E-2,-2.6112986E-1,-1.0158869E-1,-3.8336036E-1,1.0953573E0,-9.4513196E-1,1.931385E-1,-4.7824132E-1,1.1025982E0,-7.863077E-1,4.3941062E-2,1.1202108E0,-1.9676216E-1,-1.00145355E-1,6.96199E-2,6.688409E-1,-3.865281E-1,-9.4710827E-1,-1.5154333E-1,-6.718301E-2,1.1956353E0,-2.2560572E-2,-9.064462E-2,-5.3615708E-2,1.1339872E-1,7.7462986E-2,-7.527199E-2,-3.682552E-2,1.2079376E-1,7.5073816E-2,-7.165028E-2,-9.885411E-2,3.0123765E-2,9.902141E-3,-9.899738E-2,1.0970838E-1,2.56736E-1],"categories":[],"categories_nodes":[],"categories_segments":[],"categories_sizes":[],"default_left":[0,0,0,0,0,0,0,0,0,0,0,0,0,0,0,0,0,0,0,0,0,0,0,0,0,0,0,0,0,0,0,0,0,0,0,0,0,0,0,0,0],"id":18,"left_children":[1,3,5,7,9,11,-1,13,15,17,19,21,23,25,-1,27,29,-1,-1,31,33,35,37,-1,39,-1,-1,-1,-1,-1,-1,-1,-1,-1,-1,-1,-1,-1,-1,-1,-1],"loss_changes":[2.5082085E2,1.443583E2,6.4391525E1,1.0557465E1,5.278485E1,9.51347E1,0E0,2.160964E0,7.3513184E0,5.4109535E0,5.614351E1,4.2186455E1,8.097969E0,6.725478E-2,0E0,5.582733E0,3.3055353E0,0E0,0E0,6.288552E1,3.5056877E1,6.157448E0,3.4562843E1,0E0,2.9078484E0,0E0,0E0,0E0,0E0,0E0,0E0,0E0,0E0,0E0,0E0,0E0,0E0,0E0,0E0,0E0,0E0],"parents":[2147483647,0,0,1,1,2,2,3,3,4,4,5,5,7,7,8,8,9,9,10,10,11,11,12,12,13,13,15,15,16,16,19,19,20,20,21,21,22,22,24,24],"right_children":[2,4,6,8,10,12,-1,14,16,18,20,22,24,26,-1,28,30,-1,-1,32,34,36,38,-1,40,-1,-1,-1,-1,-1,-1,-1,-1,-1,-1,-1,-1,-1,-1,-1,-1],"split_conditions":[-4.7504523E-1,-6.942105E-1,-1.5679885E-1,-1.6913912E-1,-1.037392E0,2.1150132E-1,-1.0158869E-1,6.6970897E-1,-1.6310737E-1,-4.0967813E-1,-1.4584E-1,-5.6489408E-2,-1.5437813E-1,-1.3973176E-1,4.3941062E-2,-5.7291046E-2,-1.5231127E-1,-1.00145355E-1,6.96199E-2,-1.6913912E-1,-1.5299055E-1,2.3093587E-2,-7.558422E-2,-6.718301E-2,-3.8369928E-2,-2.2560572E-2,-9.064462E-2,-5.3615708E-2,1.1339872E-1,7.7462986E-2,-7.527199E-2,-3.682552E-2,1.2079376E-1,7.5073816E-2,-7.165028E-2,-9.885411E-2,3.0123765E-2,9.902141E-3,-9.899738E-2,1.0970838E-1,2.56736E-1],"split_indices":[52,89,58,1,136,78,0,148,65,51,1,15,60,21,0,15,1,0,0,1,105,47,124,0,57,0,0,0,0,0,0,0,0,0,0,0,0,0,0,0,0],"split_type":[0,0,0,0,0,0,0,0,0,0,0,0,0,0,0,0,0,0,0,0,0,0,0,0,0,0,0,0,0,0,0,0,0,0,0,0,0,0,0,0,0],"sum_hessian":[9.708107E2,4.771854E2,4.9362534E2,2.2552792E2,2.5165747E2,3.1853214E2,1.7509322E2,4.4759254E0,2.21052E2,4.9991173E1,2.0166629E2,2.7534528E2,4.3186855E1,3.034241E0,1.4416845E0,2.1701091E2,4.041091E0,4.8709576E1,1.2815958E0,1.1068171E2,9.098459E1,1.1229044E2,1.6305482E2,1.8416334E0,4.1345222E1,1.0432303E0,1.9910107E0,1.4772582E0,2.1553365E2,1.3277926E0,2.7132986E0,3.7964256E1,7.271745E1,2.0175177E1,7.080941E1,1.0888466E2,3.4057846E0,1.2621684E2,3.683798E1,4.0253033E1,1.0921917E0],"tree_param":{"num_deleted":"0","num_feature":"165","num_nodes":"41","size_leaf_vector":"1"}},{"base_weights":[-3.4416188E-2,4.965861E-1,-5.081533E-1,5.2428693E-2,1.1123525E0,-2.6126873E-1,-1.0140755E-1,-9.8585314E-1,2.7084786E-1,-2.0736163E-2,1.123198E0,-5.156523E-1,7.001979E-1,-1.0076634E-1,-1.665606E-2,7.2646374E-1,-2.7612764E-1,1.3562244E-2,1.13199316E-1,-9.212983E-1,-2.2568202E-1,9.749247E-1,-5.559433E-1,-1.9074455E-3,1.4489737E-1,2.5464782E-2,-9.9819615E-2,-9.734321E-2,5.686573E-2,7.4763946E-2,-4.030582E-2,-6.07378E-2,1.0883216E-1,5.384606E-2,-8.3437145E-2],"categories":[],"categories_nodes":[],"categories_segments":[],"categories_sizes":[],"default_left":[0,0,0,0,0,0,0,0,0,0,0,0,0,0,0,0,0,0,0,0,0,0,0,0,0,0,0,0,0,0,0,0,0,0,0],"id":19,"left_children":[1,3,5,7,9,11,-1,13,15,-1,17,19,21,-1,-1,23,25,-1,-1,27,29,31,33,-1,-1,-1,-1,-1,-1,-1,-1,-1,-1,-1,-1],"loss_changes":[2.3045119E2,1.18086555E2,6.020417E1,5.7417732E1,2.8231506E0,8.0266E1,0E0,6.1867523E-1,5.228395E1,0E0,1.4069061E0,3.0248047E1,2.4276787E1,0E0,0E0,6.159318E1,3.6931465E1,0E0,0E0,8.912262E0,2.6597565E1,1.0852158E1,4.4043E0,0E0,0E0,0E0,0E0,0E0,0E0,0E0,0E0,0E0,0E0,0E0,0E0],"parents":[2147483647,0,0,1,1,2,2,3,3,4,4,5,5,7,7,8,8,10,10,11,11,12,12,15,15,16,16,19,19,20,20,21,21,22,22],"right_children":[2,4,6,8,10,12,-1,14,16,-1,18,20,22,-1,-1,24,26,-1,-1,28,30,32,34,-1,-1,-1,-1,-1,-1,-1,-1,-1,-1,-1,-1],"split_conditions":[-4.8525494E-1,-9.5328E-2,-1.5679885E-1,-1.0943644E0,-1.3973184E-1,-9.5103934E-2,-1.0140755E-1,-2.9192916E-1,-1.4693753E-1,-2.0736163E-2,-1.7172503E-1,-5.6489408E-2,-1.8199715E-1,-1.0076634E-1,-1.665606E-2,-1.6203886E-1,-1.5576516E-1,1.3562244E-2,1.13199316E-1,2.3093587E-2,-1.509491E0,-1.6821244E-1,-2.3585401E-1,-1.9074455E-3,1.4489737E-1,2.5464782E-2,-9.9819615E-2,-9.734321E-2,5.686573E-2,7.4763946E-2,-4.030582E-2,-6.07378E-2,1.0883216E-1,5.384606E-2,-8.3437145E-2],"split_indices":[52,75,58,102,21,75,0,87,1,0,1,15,106,0,0,1,0,0,0,47,12,1,48,0,0,0,0,0,0,0,0,0,0,0,0],"split_type":[0,0,0,0,0,0,0,0,0,0,0,0,0,0,0,0,0,0,0,0,0,0,0,0,0,0,0,0,0,0,0,0,0,0,0],"sum_hessian":[9.141015E2,4.309784E2,4.831231E2,2.5100879E2,1.799696E2,3.2570096E2,1.5742216E2,4.3015564E1,2.0799324E2,1.3192707E0,1.7865034E2,2.5792355E2,6.77774E1,4.167619E1,1.3393735E0,1.1329413E2,9.4699104E1,1.7219148E0,1.7692842E2,1.06608826E2,1.5131473E2,5.5797882E1,1.1979512E1,5.6237648E1,5.705648E1,5.4952305E1,3.97468E1,1.0333963E2,3.2691967E0,2.2829075E1,1.2848566E2,3.440069E0,5.2357815E1,2.2401872E0,9.739325E0],"tree_param":{"num_deleted":"0","num_feature":"165","num_nodes":"35","size_leaf_vector":"1"}},{"base_weights":[-4.1649286E-2,6.9904935E-1,-3.5346764E-1,9.712855E-1,-6.794587E-1,-1.5881404E-1,-1.003444E0,-4.3762097E-1,1.0451037E0,9.0467416E-2,-7.765518E-1,-8.867943E-1,5.0509635E-2,2.0165456E-2,-1.0212503E-1,2.861236E-1,-8.763416E-1,1.0846915E0,-1.8492666E-1,-8.8975096E-1,5.114364E-1,-3.5733804E-3,-9.1407955E-1,2.1856727E-1,-7.365623E-1,8.413314E-2,-4.5015916E-2,-1.0806409E-2,-9.8194696E-2,-2.6675135E-2,1.1111702E-1,3.814393E-2,-7.843992E-2,-9.678928E-2,9.820444E-2,-6.734377E-2,1.9632235E-1,8.490905E-2,-6.864691E-2,-3.1872526E-2,-9.5645815E-2,-3.697137E-2,4.962746E-2,-1.3409768E-2,-9.245565E-2],"categories":[],"categories_nodes":[],"categories_segments":[],"categories_sizes":[],"default_left":[0,0,0,0,0,0,0,0,0,0,0,0,0,0,0,0,0,0,0,0,0,0,0,0,0,0,0,0,0,0,0,0,0,0,0,0,0,0,0,0,0,0,0,0,0],"id":20,"left_children":[1,3,5,7,9,11,13,15,17,-1,19,21,23,-1,-1,25,27,29,31,33,35,37,39,41,43,-1,-1,-1,-1,-1,-1,-1,-1,-1,-1,-1,-1,-1,-1,-1,-1,-1,-1,-1,-1],"loss_changes":[1.9801424E2,9.5986336E1,7.616474E1,2.256157E1,7.2362614E0,7.096675E1,3.1851807E0,3.8342876E0,1.004892E1,0E0,6.3693314E0,2.502861E0,4.8100082E1,0E0,0E0,2.4281023E0,4.839549E-1,7.313278E0,2.7303853E0,6.4577637E0,8.051693E0,2.9820507E0,2.2402115E0,4.910066E1,7.124466E0,0E0,0E0,0E0,0E0,0E0,0E0,0E0,0E0,0E0,0E0,0E0,0E0,0E0,0E0,0E0,0E0,0E0,0E0,0E0,0E0],"parents":[2147483647,0,0,1,1,2,2,3,3,4,4,5,5,6,6,7,7,8,8,10,10,11,11,12,12,15,15,16,16,17,17,18,18,19,19,20,20,21,21,22,22,23,23,24,24],"right_children":[2,4,6,8,10,12,14,16,18,-1,20,22,24,-1,-1,26,28,30,32,34,36,38,40,42,44,-1,-1,-1,-1,-1,-1,-1,-1,-1,-1,-1,-1,-1,-1,-1,-1,-1,-1,-1,-1],"split_conditions":[-6.942105E-1,-2.4294715E-1,-1.6549833E-1,-1.7289542E-1,-1.2847897E-1,-3.915103E-2,-1.4891097E-1,-4.1253787E-1,-1.488998E-1,9.0467416E-2,-3.0168554E-1,-6.117692E-1,-6.82657E-2,2.0165456E-2,-1.0212503E-1,-1.7288329E-1,-8.7687033E-1,-1.6363806E-1,-1.6738702E-1,6.8565187E0,-1.4402564E-1,-4.1334617E-1,-2.0300451E-1,-1.6319415E-1,-1.489046E-1,8.413314E-2,-4.5015916E-2,-1.0806409E-2,-9.8194696E-2,-2.6675135E-2,1.1111702E-1,3.814393E-2,-7.843992E-2,-9.678928E-2,9.820444E-2,-6.734377E-2,1.9632235E-1,8.490905E-2,-6.864691E-2,-3.1872526E-2,-9.5645815E-2,-3.697137E-2,4.962746E-2,-1.3409768E-2,-9.245565E-2],"split_indices":[89,46,58,58,126,57,22,51,22,0,137,154,160,0,0,17,99,7,108,3,141,51,94,141,28,0,0,0,0,0,0,0,0,0,0,0,0,0,0,0,0,0,0,0,0],"split_type":[0,0,0,0,0,0,0,0,0,0,0,0,0,0,0,0,0,0,0,0,0,0,0,0,0,0,0,0,0,0,0,0,0,0,0,0,0,0,0,0,0,0,0,0,0],"sum_hessian":[8.552703E2,2.530142E2,6.022561E2,2.115345E2,4.1479713E1,4.644176E2,1.3783852E2,1.0285989E1,2.012485E2,1.915158E0,3.9564552E1,1.0299341E2,3.614242E2,1.8566827E0,1.3598183E2,4.013258E0,6.2727313E0,1.9508788E2,6.1606336E0,3.6652424E1,2.9121284E0,3.12031E0,9.98731E1,2.9842584E2,6.2998352E1,2.2066317E0,1.8066261E0,1.0025408E0,5.2701902E0,3.5745065E0,1.9151337E2,3.3548079E0,2.805826E0,3.564717E1,1.0052556E0,1.8986663E0,1.0134622E0,1.2794368E0,1.8408732E0,7.2029867E0,9.267011E1,9.5593704E1,2.0283212E2,1.539032E1,4.7608032E1],"tree_param":{"num_deleted":"0","num_feature":"165","num_nodes":"45","size_leaf_vector":"1"}},{"base_weights":[-3.6194503E-2,7.366708E-1,-3.1858703E-1,1.0197612E0,-6.7400056E-1,-8.7823264E-2,-8.7223333E-1,-5.9292716E-1,1.0869354E0,9.136418E-2,-7.8584445E-1,2.9785988E-1,-4.7245845E-1,-9.332377E-1,-7.541561E-2,-8.4732246E-1,2.3349572E-2,2.2742345E0,1.0279117E0,-8.654449E-1,8.65375E-2,-6.608597E-1,5.3613114E-1,-2.8783405E-1,-9.815296E-1,-6.078546E-1,-9.806852E-1,8.391506E-1,-8.838638E-2,-9.447816E-2,-1.7329125E-2,2.525764E-1,4.0505547E-2,1.0657855E-1,-4.7488764E-2,-9.194155E-2,2.1834297E-2,-9.1515996E-2,2.0693762E-2,-6.0267873E-2,8.057784E-2,-5.6592148E-2,2.459602E-2,1.6975166E-2,-1.0164727E-1,-1.2947472E-2,-1.1198683E-1,-1.1427453E-2,-9.870721E-2,5.0159628E-3,9.6938275E-2],"categories":[],"categories_nodes":[],"categories_segments":[],"categories_sizes":[],"default_left":[0,0,0,0,0,0,0,0,0,0,0,0,0,0,0,0,0,0,0,0,0,0,0,0,0,0,0,0,0,0,0,0,0,0,0,0,0,0,0,0,0,0,0,0,0,0,0,0,0,0,0],"id":21,"left_children":[1,3,5,7,9,11,13,15,17,-1,19,21,23,25,27,29,-1,31,33,35,-1,37,39,41,43,45,47,49,-1,-1,-1,-1,-1,-1,-1,-1,-1,-1,-1,-1,-1,-1,-1,-1,-1,-1,-1,-1,-1,-1,-1],"loss_changes":[1.7896436E2,8.832343E1,7.664011E1,2.0487305E1,7.337721E0,6.3177917E1,8.511047E0,1.87377E0,1.0009933E1,0E0,5.3971252E0,4.896288E1,1.9749916E1,1.9342041E0,1.0828686E1,2.5086975E-1,0E0,2.5122986E0,1.016362E1,2.2034073E0,0E0,9.635723E0,5.2990818E1,2.356757E1,2.4379234E0,5.6081505E0,6.69693E-1,6.6181564E-1,0E0,0E0,0E0,0E0,0E0,0E0,0E0,0E0,0E0,0E0,0E0,0E0,0E0,0E0,0E0,0E0,0E0,0E0,0E0,0E0,0E0,0E0,0E0],"parents":[2147483647,0,0,1,1,2,2,3,3,4,4,5,5,6,6,7,7,8,8,10,10,11,11,12,12,13,13,14,14,15,15,17,17,18,18,19,19,21,21,22,22,23,23,24,24,25,25,26,26,27,27],"right_children":[2,4,6,8,10,12,14,16,18,-1,20,22,24,26,28,30,-1,32,34,36,-1,38,40,42,44,46,48,50,-1,-1,-1,-1,-1,-1,-1,-1,-1,-1,-1,-1,-1,-1,-1,-1,-1,-1,-1,-1,-1,-1,-1],"split_conditions":[-1.8871373E-1,-2.3571372E-1,5.35945E-1,-1.7007875E-1,-1.4370672E-1,-9.4907784E-1,3.0250428E0,1.746131E0,-1.0943644E0,9.136418E-2,7.3067436E0,-1.6913912E-1,-6.82657E-2,-4.8798966E-1,-1.5316302E-1,-1.7290367E-1,2.3349572E-2,-1.1458377E-1,-4.201365E-1,-1.9540727E-1,8.65375E-2,1.0186019E0,-1.6360843E-1,1.0186019E0,-1.9316073E-1,-4.3990144E-1,-1.8870296E-1,-1.6125576E-1,-8.838638E-2,-9.447816E-2,-1.7329125E-2,2.525764E-1,4.0505547E-2,1.0657855E-1,-4.7488764E-2,-9.194155E-2,2.1834297E-2,-9.1515996E-2,2.0693762E-2,-6.0267873E-2,8.057784E-2,-5.6592148E-2,2.459602E-2,1.6975166E-2,-1.0164727E-1,-1.2947472E-2,-1.1198683E-1,-1.1427453E-2,-9.870721E-2,5.0159628E-3,9.6938275E-2],"split_indices":[131,48,88,1,124,157,87,147,102,0,3,1,160,52,66,17,0,126,52,39,0,2,7,2,96,154,131,7,0,0,0,0,0,0,0,0,0,0,0,0,0,0,0,0,0,0,0,0,0,0,0],"split_type":[0,0,0,0,0,0,0,0,0,0,0,0,0,0,0,0,0,0,0,0,0,0,0,0,0,0,0,0,0,0,0,0,0,0,0,0,0,0,0,0,0,0,0,0,0,0,0,0,0,0,0],"sum_hessian":[8.179165E2,2.1844827E2,5.994682E2,1.8216826E2,3.6280014E1,4.239298E2,1.755384E2,6.9715514E0,1.751967E2,1.9158142E0,3.43642E1,2.117892E2,2.1214062E2,1.6289589E2,1.2642511E1,5.3113003E0,1.6602509E0,6.5196185E0,1.6867708E2,3.323778E1,1.1264198E0,4.180541E1,1.6998378E2,1.5682901E2,5.5311626E1,2.248826E1,1.4040764E2,5.9141192E0,6.7283926E0,4.2894015E0,1.0218989E0,5.436744E0,1.0828744E0,1.648142E2,3.8628871E0,3.1805588E1,1.432193E0,3.2288868E1,9.5165415E0,3.2306725E1,1.3767706E2,1.0307203E2,5.3756973E1,1.5156898E0,5.3795937E1,1.2273692E1,1.0214567E1,1.1657057E0,1.3924193E2,1.034134E0,4.8799853E0],"tree_param":{"num_deleted":"0","num_feature":"165","num_nodes":"51","size_leaf_vector":"1"}},{"base_weights":[-3.8756214E-2,6.890004E-1,-3.0714917E-1,9.253671E-1,-9.271073E-1,-1.3419625E-1,-9.912489E-1,-6.7726004E-1,1.050693E0,-9.8373495E-2,2.6366074E-2,6.395693E-2,-8.6703295E-1,2.0651458E-2,-1.01285316E-1,4.6180815E-1,-9.672349E-2,-3.2275584E-1,1.1001709E0,-8.496743E-1,2.234747E-1,-5.191038E-1,-9.9400467E-1,-1.34130735E-2,7.914474E-2,-8.9015976E-2,9.59989E-2,2.1813333E-1,1.0402111E-1,6.4213715E-2,-9.3744665E-2,3.632109E-2,-9.7374074E-2,4.8547253E-2,-7.385295E-2,-1.0076147E-1,-6.3768695E-3],"categories":[],"categories_nodes":[],"categories_segments":[],"categories_sizes":[],"default_left":[0,0,0,0,0,0,0,0,0,0,0,0,0,0,0,0,0,0,0,0,0,0,0,0,0,0,0,0,0,0,0,0,0,0,0,0,0],"id":22,"left_children":[1,3,5,7,9,11,13,15,17,-1,-1,19,21,-1,-1,23,-1,25,27,29,31,33,35,-1,-1,-1,-1,-1,-1,-1,-1,-1,-1,-1,-1,-1,-1],"loss_changes":[1.51824E2,8.08635E1,6.704321E1,3.751117E1,2.0950527E0,6.60329E1,3.1699371E0,5.0367503E0,1.1929398E1,0E0,0E0,5.2448612E1,3.75914E0,0E0,0E0,7.930626E-1,0E0,5.727827E0,8.403061E0,7.6083374E0,5.155674E1,6.5232086E0,8.195343E-1,0E0,0E0,0E0,0E0,0E0,0E0,0E0,0E0,0E0,0E0,0E0,0E0,0E0,0E0],"parents":[2147483647,0,0,1,1,2,2,3,3,4,4,5,5,6,6,7,7,8,8,11,11,12,12,15,15,17,17,18,18,19,19,20,20,21,21,22,22],"right_children":[2,4,6,8,10,12,14,16,18,-1,-1,20,22,-1,-1,24,-1,26,28,30,32,34,36,-1,-1,-1,-1,-1,-1,-1,-1,-1,-1,-1,-1,-1,-1],"split_conditions":[-1.8870892E-1,2.528539E-1,-1.6549833E-1,-1.6913912E-1,6.383794E-1,-6.82657E-2,-1.4891097E-1,-2.4322645E-1,-1.6363806E-1,-9.8373495E-2,2.6366074E-2,-1.8022569E-1,-1.5411662E0,2.0651458E-2,-1.01285316E-1,-4.138245E-1,-9.672349E-2,7.3067436E0,-1.2003525E0,-1.2814006E-1,-7.558422E-2,1.82794E-2,3.6716118E0,-1.34130735E-2,7.914474E-2,-8.9015976E-2,9.59989E-2,2.1813333E-1,1.0402111E-1,6.4213715E-2,-9.3744665E-2,3.632109E-2,-9.7374074E-2,4.8547253E-2,-7.385295E-2,-1.0076147E-1,-6.3768695E-3],"split_indices":[131,54,58,1,39,160,22,46,7,0,0,1,163,0,0,51,0,3,99,126,124,159,118,0,0,0,0,0,0,0,0,0,0,0,0,0,0],"split_type":[0,0,0,0,0,0,0,0,0,0,0,0,0,0,0,0,0,0,0,0,0,0,0,0,0,0,0,0,0,0,0,0,0,0,0,0,0],"sum_hessian":[7.752066E2,2.0844197E2,5.667646E2,1.8221867E2,2.6223307E1,4.533465E2,1.1341812E2,1.2896636E1,1.6932204E2,2.5198826E1,1.0244807E0,3.5757407E2,9.577244E1,1.8578496E0,1.1156027E2,2.4966822E0,1.0399954E1,5.695593E0,1.6362643E2,5.2508327E1,3.0506573E2,2.6966606E1,6.880583E1,1.1004074E0,1.3962748E0,4.161059E0,1.5345343E0,6.738666E0,1.5688777E2,2.5667622E0,4.9941566E1,2.7380453E2,3.1261206E1,4.616918E0,2.2349688E1,6.773168E1,1.0741488E0],"tree_param":{"num_deleted":"0","num_feature":"165","num_nodes":"37","size_leaf_vector":"1"}},{"base_weights":[-3.8999926E-2,6.4779013E-1,-3.086269E-1,9.365224E-1,-4.4577116E-1,-9.0966225E-2,-8.4944594E-1,9.096182E-3,1.0283555E0,7.3429346E-1,-7.278502E-1,-1.8494745E-1,1.3131912E0,-9.181052E-1,-1.4517077E-2,-2.388854E-1,8.0604696E-1,-1.164407E-3,1.0795552E0,1.5624977E0,-7.59076E-2,-8.290224E-1,1.3322756E-1,1.5445605E-1,-5.182618E-1,1.4553988E0,-7.699027E-2,-9.835198E-1,-5.4832804E-1,8.302956E-1,-8.644105E-2,-5.4756742E-2,3.8345903E-2,5.628009E-3,1.0550838E-1,9.780226E-2,-6.271543E-2,-2.1183327E-2,1.0922706E-1,3.810629E-2,2.1089946E-1,-9.0952605E-2,9.6897505E-2,-7.672977E-2,3.5571497E-2,2.7542014E-2,-6.7914695E-2,1.6200595E-1,2.2928894E-3,-3.595862E-2,-9.9416815E-2,-9.662311E-3,-9.578874E-2,2.3077922E-2,9.286517E-2],"categories":[],"categories_nodes":[],"categories_segments":[],"categories_sizes":[],"default_left":[0,0,0,0,0,0,0,0,0,0,0,0,0,0,0,0,0,0,0,0,0,0,0,0,0,0,0,0,0,0,0,0,0,0,0,0,0,0,0,0,0,0,0,0,0,0,0,0,0,0,0,0,0,0,0],"id":23,"left_children":[1,3,5,7,9,11,13,15,17,19,21,23,25,27,29,31,33,35,37,39,-1,41,-1,43,45,47,-1,49,51,53,-1,-1,-1,-1,-1,-1,-1,-1,-1,-1,-1,-1,-1,-1,-1,-1,-1,-1,-1,-1,-1,-1,-1,-1,-1],"loss_changes":[1.3839548E2,6.69489E1,6.3085896E1,1.4215561E1,1.5410736E1,5.087968E1,8.8068695E0,3.3659124E0,8.011414E0,1.24653225E1,8.726915E0,4.0865074E1,8.28775E0,2.8992538E0,9.841529E0,2.7107892E0,6.9483066E-1,5.638599E0,2.6085205E0,3.194995E0,0E0,6.0162487E0,0E0,3.3553482E1,2.344246E1,5.3866043E0,0E0,4.3663025E-1,4.2785244E0,1.9153452E-1,0E0,0E0,0E0,0E0,0E0,0E0,0E0,0E0,0E0,0E0,0E0,0E0,0E0,0E0,0E0,0E0,0E0,0E0,0E0,0E0,0E0,0E0,0E0,0E0,0E0],"parents":[2147483647,0,0,1,1,2,2,3,3,4,4,5,5,6,6,7,7,8,8,9,9,10,10,11,11,12,12,13,13,14,14,15,15,16,16,17,17,18,18,19,19,21,21,23,23,24,24,25,25,27,27,28,28,29,29],"right_children":[2,4,6,8,10,12,14,16,18,20,22,24,26,28,30,32,34,36,38,40,-1,42,-1,44,46,48,-1,50,52,54,-1,-1,-1,-1,-1,-1,-1,-1,-1,-1,-1,-1,-1,-1,-1,-1,-1,-1,-1,-1,-1,-1,-1,-1,-1],"split_conditions":[-6.942105E-1,-4.201365E-1,5.35945E-1,-2.6373616E-1,-1.2317196E0,-1.5055862E-2,3.0250428E0,-2.5516033E-1,-1.636185E-1,-1.488889E-1,7.8539104E0,-9.4907784E-1,6.0971946E-1,1.4881129E0,-1.6549833E-1,-1.2492044E-1,4.7962332E-1,-2.9011825E-1,-1.6093282E-1,-1.1928402E0,-7.59076E-2,-2.2035146E-1,1.3322756E-1,-1.6360843E-1,-6.117692E-1,-1.6029917E-1,-7.699027E-2,-1.4891228E-1,-1.3264933E0,-8.5394464E-2,-8.644105E-2,-5.4756742E-2,3.8345903E-2,5.628009E-3,1.0550838E-1,9.780226E-2,-6.271543E-2,-2.1183327E-2,1.0922706E-1,3.810629E-2,2.1089946E-1,-9.0952605E-2,9.6897505E-2,-7.672977E-2,3.5571497E-2,2.7542014E-2,-6.7914695E-2,1.6200595E-1,2.2928894E-3,-3.595862E-2,-9.9416815E-2,-9.662311E-3,-9.578874E-2,2.3077922E-2,9.286517E-2],"split_indices":[89,52,88,78,100,72,87,83,7,22,5,157,154,151,58,126,150,87,60,135,0,143,0,7,154,0,0,22,85,75,0,0,0,0,0,0,0,0,0,0,0,0,0,0,0,0,0,0,0,0,0,0,0,0,0],"split_type":[0,0,0,0,0,0,0,0,0,0,0,0,0,0,0,0,0,0,0,0,0,0,0,0,0,0,0,0,0,0,0,0,0,0,0,0,0,0,0,0,0,0,0,0,0,0,0,0,0,0,0,0,0,0,0],"sum_hessian":[7.452885E2,2.0971156E2,5.355769E2,1.6602081E2,4.369076E1,3.8271555E2,1.5286137E2,1.5057147E1,1.5096365E2,8.119608E0,3.557115E1,3.5952087E2,2.3194693E1,1.4115413E2,1.1707247E1,1.2017879E1,3.0392683E0,7.1982813E0,1.4376538E2,5.1932216E0,2.926387E0,3.447565E1,1.0955025E0,1.783992E2,1.8112166E2,2.199451E1,1.200182E0,1.1852667E2,2.2627455E1,5.8827367E0,5.8245106E0,8.113665E0,3.9042137E0,1.0634788E0,1.9757894E0,2.5878882E0,4.610393E0,1.249076E0,1.425163E2,2.1792748E0,3.0139465E0,3.3471153E1,1.0044953E0,3.146749E1,1.4693172E2,3.0406712E1,1.5071495E2,1.960947E1,2.3850408E0,2.5723245E0,1.15954346E2,1.13478155E1,1.1279639E1,1.300722E0,4.5820146E0],"tree_param":{"num_deleted":"0","num_feature":"165","num_nodes":"55","size_leaf_vector":"1"}},{"base_weights":[-8.612112E-3,1.6330187E-1,-9.995615E-1,-1.19682595E-1,9.013455E-1,-2.4132254E-3,-1.0087939E-1,-8.814186E-1,7.253436E-2,9.6471035E-1,-8.356207E-2,3.2440734E-1,-9.571224E-1,2.558589E-1,-5.8162904E-1,1.0008745E0,-7.645035E-2,1.2452666E-1,-5.221183E-2,-8.947152E-3,-9.799709E-2,3.6137134E-2,-7.26009E-2,-7.468111E-2,1.3943054E-2,1.0267054E-1,-7.040079E-2],"categories":[],"categories_nodes":[],"categories_segments":[],"categories_sizes":[],"default_left":[0,0,0,0,0,0,0,0,0,0,0,0,0,0,0,0,0,0,0,0,0,0,0,0,0,0,0],"id":24,"left_children":[1,3,5,7,9,-1,-1,11,13,15,-1,17,19,21,23,25,-1,-1,-1,-1,-1,-1,-1,-1,-1,-1,-1],"loss_changes":[1.2078736E2,1.2630726E2,9.1960907E-1,6.4145035E1,1.9251251E1,0E0,0E0,8.367531E0,4.216967E1,1.0905487E1,0E0,5.296764E0,1.5637283E0,2.8688839E1,9.276051E0,7.7365875E0,0E0,0E0,0E0,0E0,0E0,0E0,0E0,0E0,0E0,0E0,0E0],"parents":[2147483647,0,0,1,1,2,2,3,3,4,4,7,7,8,8,9,9,11,11,12,12,13,13,14,14,15,15],"right_children":[2,4,6,8,10,-1,-1,12,14,16,-1,18,20,22,24,26,-1,-1,-1,-1,-1,-1,-1,-1,-1,-1,-1],"split_conditions":[-1.5678655E-1,-9.517863E-2,-1.4891179E-1,-3.915103E-2,-8.835719E-2,-2.4132254E-3,-1.0087939E-1,-4.8814464E-1,-1.4888348E-1,1.3741951E0,-8.356207E-2,-1.2481766E-1,-1.2847897E-1,6.6302466E-1,-2.2897194E-1,-2.691704E-2,-7.645035E-2,1.2452666E-1,-5.221183E-2,-8.947152E-3,-9.799709E-2,3.6137134E-2,-7.26009E-2,-7.468111E-2,1.3943054E-2,1.0267054E-1,-7.040079E-2],"split_indices":[64,75,22,57,124,0,0,52,28,52,0,129,126,88,46,18,0,0,0,0,0,0,0,0,0,0,0],"split_type":[0,0,0,0,0,0,0,0,0,0,0,0,0,0,0,0,0,0,0,0,0,0,0,0,0,0,0],"sum_hessian":[7.070624E2,6.032443E2,1.038181E2,4.3665692E2,1.6658739E2,1.0073092E0,1.0281079E2,8.726181E1,3.493951E2,1.6115309E2,5.4343E0,4.960748E0,8.230106E1,2.7338876E2,7.600634E1,1.582644E2,2.8886845E0,2.1504424E0,2.8103058E0,2.2378213E0,8.006324E1,2.474315E2,2.5957266E1,6.181085E1,1.419549E1,1.5629416E2,1.9702444E0],"tree_param":{"num_deleted":"0","num_feature":"165","num_nodes":"27","size_leaf_vector":"1"}},{"base_weights":[-3.6428675E-2,3.6971986E-1,-4.624501E-1,-8.145265E-2,8.982929E-1,-2.4721667E-1,-1.0068563E-1,-8.6459416E-1,1.5188643E-1,1.0820246E0,3.421882E-2,-4.1438353E-1,1.0527798E-1,5.5240333E-1,-9.794241E-2,2.8169402E-1,-9.54519E-1,1.1163435E0,-4.968074E-1,2.7894658E-1,-1.1281366E0,-2.2092552E-1,-9.551609E-1,1.10697865E-1,-4.1360106E-2,1.0747739E-2,1.251515E-1,-2.9594464E-2,-1.14654675E-1,1.1331993E-1,-4.664828E-2,-6.7133E-2,-3.6803614E-3,6.748533E-2,-5.4184057E-2,-1.6087806E-2,-1.3234507E-1,-4.0976547E-2,4.3277234E-2,-9.770468E-2,1.0841791E-2],"categories":[],"categories_nodes":[],"categories_segments":[],"categories_sizes":[],"default_left":[0,0,0,0,0,0,0,0,0,0,0,0,0,0,0,0,0,0,0,0,0,0,0,0,0,0,0,0,0,0,0,0,0,0,0,0,0,0,0,0,0],"id":25,"left_children":[1,3,5,7,9,11,-1,13,15,17,19,21,-1,23,-1,25,27,29,31,33,35,37,39,-1,-1,-1,-1,-1,-1,-1,-1,-1,-1,-1,-1,-1,-1,-1,-1,-1,-1],"loss_changes":[1.1556878E2,8.162892E1,3.7943687E1,3.4014114E1,2.4977951E1,5.1488106E1,0E0,7.4910583E0,2.0907715E1,7.5933685E0,8.467868E0,2.1640545E1,0E0,2.5157058E0,0E0,2.1726614E1,1.5978022E0,3.9289703E0,2.5271928E-1,8.320111E0,7.663064E-1,1.932821E1,1.3799667E0,0E0,0E0,0E0,0E0,0E0,0E0,0E0,0E0,0E0,0E0,0E0,0E0,0E0,0E0,0E0,0E0,0E0,0E0],"parents":[2147483647,0,0,1,1,2,2,3,3,4,4,5,5,7,7,8,8,9,9,10,10,11,11,13,13,15,15,16,16,17,17,18,18,19,19,20,20,21,21,22,22],"right_children":[2,4,6,8,10,12,-1,14,16,18,20,22,-1,24,-1,26,28,30,32,34,36,38,40,-1,-1,-1,-1,-1,-1,-1,-1,-1,-1,-1,-1,-1,-1,-1,-1,-1,-1],"split_conditions":[-1.4890443E-1,-3.914994E-2,-1.5679885E-1,-3.9151095E-2,-4.9412668E-1,9.268908E-1,-1.0068563E-1,-4.8817813E-1,7.574781E-1,2.4881168E-1,-7.0665866E-2,-6.82657E-2,1.0527798E-1,-5.7892287E-1,-9.794241E-2,-1.7624814E-2,-1.9908261E-1,-2.4313977E-1,-1.6092294E-1,-4.8740184E-1,-1.7031522E-1,1.2031242E0,-9.443174E-2,1.10697865E-1,-4.1360106E-2,1.0747739E-2,1.251515E-1,-2.9594464E-2,-1.14654675E-1,1.1331993E-1,-4.664828E-2,-6.7133E-2,-3.6803614E-3,6.748533E-2,-5.4184057E-2,-1.6087806E-2,-1.3234507E-1,-4.0976547E-2,4.3277234E-2,-9.770468E-2,1.0841791E-2],"split_indices":[28,57,58,57,88,45,0,52,88,158,163,160,0,156,0,71,130,46,66,52,93,147,75,0,0,0,0,0,0,0,0,0,0,0,0,0,0,0,0,0,0],"split_type":[0,0,0,0,0,0,0,0,0,0,0,0,0,0,0,0,0,0,0,0,0,0,0,0,0,0,0,0,0,0,0,0,0,0,0,0,0,0,0,0,0],"sum_hessian":[6.6593146E2,3.409849E2,3.249466E2,1.8441782E2,1.5656706E2,2.3391956E2,9.102704E1,4.1713173E1,1.4270465E2,1.2890518E2,2.7661882E1,2.0787067E2,2.6048895E1,2.8412793E0,3.8871895E1,1.2838719E2,1.4317464E1,1.26449486E2,2.455692E0,2.3478603E1,4.183279E0,1.5413785E2,5.373282E1,1.7123166E0,1.1289626E0,1.09777756E2,1.8609425E1,3.80592E0,1.0511544E1,1.2539816E2,1.0513225E0,1.4472231E0,1.008469E0,1.5958714E1,7.5198894E0,1.0091802E0,3.174099E0,1.198801E2,3.4257748E1,5.272914E1,1.003677E0],"tree_param":{"num_deleted":"0","num_feature":"165","num_nodes":"41","size_leaf_vector":"1"}},{"base_weights":[-2.7622081E-2,-7.516579E-1,1.8621866E-1,-9.3008745E-1,-3.8628095E-1,3.7051928E-1,-8.129169E-1,-9.787259E-2,-9.5830554E-1,-6.252518E-1,1.3962071E0,5.136487E-1,-8.167901E-1,-9.815985E-1,-5.149155E-1,-7.154894E-2,9.5953815E-2,-1.1514458E-2,-9.682418E-1,8.3736783E-1,-7.296233E-1,1.7025889E0,-5.6731002E-3,7.5820714E-1,2.9723985E-2,-1.936783E-1,-9.851E-2,-1.0014986E-1,-3.9314926E-3,1.0091404E0,-7.931502E-1,-1.68563E-2,-9.776763E-2,-2.2822632E-2,1.4757037E-1,-8.1765436E-2,9.434167E-3,4.6664607E-2,1.9413081E-1,-6.85005E-3,9.2076994E-2,-3.111883E-2,9.2975214E-2,-7.107253E-2,2.149343E-1,1.8663022E-1,3.6596123E-3,-8.55627E-2,2.9358212E-2],"categories":[],"categories_nodes":[],"categories_segments":[],"categories_sizes":[],"default_left":[0,0,0,0,0,0,0,0,0,0,0,0,0,0,0,0,0,0,0,0,0,0,0,0,0,0,0,0,0,0,0,0,0,0,0,0,0,0,0,0,0,0,0,0,0,0,0,0,0],"id":26,"left_children":[1,3,5,7,9,11,13,15,17,19,21,23,25,27,29,-1,-1,-1,31,33,35,37,-1,39,41,43,-1,-1,-1,45,47,-1,-1,-1,-1,-1,-1,-1,-1,-1,-1,-1,-1,-1,-1,-1,-1,-1,-1],"loss_changes":[9.872521E1,9.11853E0,9.09651E1,2.183342E0,2.1920115E1,7.117708E1,3.3646507E0,3.4907258E0,6.733017E-1,7.367544E0,2.834506E0,4.4025475E1,4.5474453E0,8.6180115E-1,1.349261E1,0E0,0E0,0E0,5.326767E-1,2.6587703E0,3.1124592E0,6.022539E-1,0E0,3.3285065E1,3.894653E1,1.4675402E1,0E0,0E0,0E0,4.1505404E0,2.0076847E0,0E0,0E0,0E0,0E0,0E0,0E0,0E0,0E0,0E0,0E0,0E0,0E0,0E0,0E0,0E0,0E0,0E0,0E0],"parents":[2147483647,0,0,1,1,2,2,3,3,4,4,5,5,6,6,7,7,8,8,9,9,10,10,11,11,12,12,13,13,14,14,18,18,19,19,20,20,21,21,23,23,24,24,25,25,29,29,30,30],"right_children":[2,4,6,8,10,12,14,16,18,20,22,24,26,28,30,-1,-1,-1,32,34,36,38,-1,40,42,44,-1,-1,-1,46,48,-1,-1,-1,-1,-1,-1,-1,-1,-1,-1,-1,-1,-1,-1,-1,-1,-1,-1],"split_conditions":[-1.6913912E-1,-4.680527E-1,-6.82657E-2,-1.4370672E-1,-1.7622005E-2,1.6001548E0,-3.9145768E-2,-1.685195E-1,-1.977835E-1,-5.0394875E-1,-5.7269968E-2,-2.550915E-1,1.9541095E0,1.6013036E0,-1.4890628E-1,-7.154894E-2,9.5953815E-2,-1.1514458E-2,-2.0305899E-1,-5.6471173E-2,1.3662871E0,-1.635573E-1,-5.6731002E-3,-1.7288427E-1,9.132792E-1,-4.5943886E-2,-9.851E-2,-1.0014986E-1,-3.9314926E-3,-1.521004E-1,1.5539094E0,-1.68563E-2,-9.776763E-2,-2.2822632E-2,1.4757037E-1,-8.1765436E-2,9.434167E-3,4.6664607E-2,1.9413081E-1,-6.85005E-3,9.2076994E-2,-3.111883E-2,9.2975214E-2,-7.107253E-2,2.149343E-1,1.8663022E-1,3.6596123E-3,-8.55627E-2,2.9358212E-2],"split_indices":[1,135,160,124,71,52,63,141,1,102,138,83,52,1,28,0,0,0,94,15,149,7,0,64,52,47,0,0,0,141,111,0,0,0,0,0,0,0,0,0,0,0,0,0,0,0,0,0,0],"split_type":[0,0,0,0,0,0,0,0,0,0,0,0,0,0,0,0,0,0,0,0,0,0,0,0,0,0,0,0,0,0,0,0,0,0,0,0,0,0,0,0,0,0,0,0,0,0,0,0,0],"sum_hessian":[6.357389E2,1.4437834E2,4.9136057E2,9.5967606E1,4.841074E1,4.1537045E2,7.5990105E1,3.2938228E0,9.267378E1,4.3260242E1,5.150498E0,3.71191E2,4.417946E1,4.705883E1,2.8931273E1,2.2834518E0,1.0103709E0,1.226023E0,9.144776E1,2.4136314E0,4.084661E1,4.111648E0,1.0388502E0,2.4620227E2,1.2498872E2,9.852935E0,3.4326523E1,4.6024006E1,1.0348222E0,4.0608196E0,2.4870453E1,1.2862922E0,9.016147E1,1.1448928E0,1.2687387E0,3.6910786E1,3.9358249E0,1.1439191E0,2.9677289E0,4.0552505E1,2.0564977E2,9.112621E1,3.3862507E1,8.642427E0,1.2105074E0,1.669978E0,2.390842E0,2.371947E1,1.1509826E0],"tree_param":{"num_deleted":"0","num_feature":"165","num_nodes":"49","size_leaf_vector":"1"}},{"base_weights":[-2.3268761E-2,1.2281058E-1,-9.908073E-1,-1.13632314E-1,8.4160167E-1,-5.3479113E-3,-1.0019565E-1,-3.8585174E-1,3.2806066E-1,9.0971524E-1,-8.366153E-2,-1.8653624E-1,-8.9366007E-1,5.937153E-1,-7.309437E-1,9.744663E-1,-2.209205E-1,1.0695635E-2,-6.5555625E-2,-9.3431704E-2,6.499634E-2,4.7944315E-2,2.6989064E-1,7.664757E-2,-8.1355594E-2,1.0178649E-1,-5.5526365E-2,-7.9949245E-2,7.610262E-2],"categories":[],"categories_nodes":[],"categories_segments":[],"categories_sizes":[],"default_left":[0,0,0,0,0,0,0,0,0,0,0,0,0,0,0,0,0,0,0,0,0,0,0,0,0,0,0,0,0],"id":27,"left_children":[1,3,5,7,9,-1,-1,11,13,15,-1,17,19,21,23,25,27,-1,-1,-1,-1,-1,-1,-1,-1,-1,-1,-1,-1],"loss_changes":[8.703315E1,9.1045845E1,7.90535E-1,4.865057E1,1.5916328E1,0E0,0E0,2.515144E1,4.387788E1,9.578003E0,0E0,2.4971785E1,5.0157127E0,2.8537598E1,4.5100403E0,8.607857E0,5.0072155E0,0E0,0E0,0E0,0E0,0E0,0E0,0E0,0E0,0E0,0E0,0E0,0E0],"parents":[2147483647,0,0,1,1,2,2,3,3,4,4,7,7,8,8,9,9,11,11,12,12,13,13,14,14,15,15,16,16],"right_children":[2,4,6,8,10,-1,-1,12,14,16,-1,18,20,22,24,26,28,-1,-1,-1,-1,-1,-1,-1,-1,-1,-1,-1,-1],"split_conditions":[-1.5679885E-1,-9.517863E-2,-1.5566185E-1,1.0186019E0,-8.835719E-2,-5.3479113E-3,-1.0019565E-1,-2.3902094E-1,-6.82657E-2,-6.801802E-2,-8.366153E-2,-4.2630133E-1,-2.6078373E-2,-2.201303E-1,-1.9307166E-1,8.582145E-2,-1.3013524E-1,1.0695635E-2,-6.5555625E-2,-9.3431704E-2,6.499634E-2,4.7944315E-2,2.6989064E-1,7.664757E-2,-8.1355594E-2,1.0178649E-1,-5.5526365E-2,-7.9949245E-2,7.610262E-2],"split_indices":[58,75,24,2,124,0,0,40,160,18,0,99,36,46,96,116,39,0,0,0,0,0,0,0,0,0,0,0,0],"split_type":[0,0,0,0,0,0,0,0,0,0,0,0,0,0,0,0,0,0,0,0,0,0,0,0,0,0,0,0,0],"sum_hessian":[6.1392206E2,5.3414905E2,7.9772964E1,4.025681E2,1.3158095E2,1.005855E0,7.8767105E1,2.491445E2,1.5342361E2,1.26888855E2,4.6920953E0,1.7990059E2,6.924391E1,1.23006424E2,3.041719E1,1.20146255E2,6.742604E0,1.1113133E2,6.8769264E1,6.785152E1,1.3923924E0,1.178378E2,5.168626E0,1.1575524E0,2.925964E1,1.17157104E2,2.9891462E0,4.3596606E0,2.382943E0],"tree_param":{"num_deleted":"0","num_feature":"165","num_nodes":"29","size_leaf_vector":"1"}},{"base_weights":[-2.4054805E-2,-7.4381524E-1,1.7629625E-1,-3.128904E-1,-8.9254093E-1,3.3646014E-1,-7.5812995E-1,-9.6256495E-1,1.1369426E-1,-9.517646E-1,-6.334411E-1,6.1899155E-1,-1.8214485E-1,-2.579677E-1,-9.360342E-1,-9.9867195E-2,-2.628181E-2,-6.57144E-1,6.619675E-1,-3.7152684E-1,-9.7373295E-1,5.157538E-2,-7.599322E-1,-2.7600107E-1,8.2212865E-1,-6.1693954E-1,1.8456617E-1,6.6131824E-1,-7.9867595E-1,-9.862955E-1,8.085085E-3,-8.102293E-2,2.412245E-2,1.3266438E-1,-2.4773203E-2,-7.734399E-2,4.8397355E-2,-9.832751E-2,-1.5016265E-2,2.4130862E-2,-9.051272E-2,-4.1854333E-2,1.13709025E-1,1.12855494E-1,4.205927E-2,-2.5224326E-2,-8.979925E-2,-7.826605E-2,3.957515E-2,2.0449331E-1,-6.356531E-2,-9.301626E-2,9.847177E-3,-9.994977E-2,-2.0750439E-2,-5.474422E-2,6.2047184E-2],"categories":[],"categories_nodes":[],"categories_segments":[],"categories_sizes":[],"default_left":[0,0,0,0,0,0,0,0,0,0,0,0,0,0,0,0,0,0,0,0,0,0,0,0,0,0,0,0,0,0,0,0,0,0,0,0,0,0,0,0,0,0,0,0,0,0,0,0,0,0,0,0,0,0,0,0,0],"id":28,"left_children":[1,3,5,7,9,11,13,15,17,19,21,23,25,27,29,-1,-1,31,33,35,37,-1,39,41,43,45,47,49,51,53,55,-1,-1,-1,-1,-1,-1,-1,-1,-1,-1,-1,-1,-1,-1,-1,-1,-1,-1,-1,-1,-1,-1,-1,-1,-1,-1],"loss_changes":[8.4703606E1,7.9174347E0,6.903651E1,9.630546E0,8.4780884E-1,5.7699753E1,5.7696114E0,8.423805E-2,9.577463E0,5.9375E-1,3.3833523E0,4.652339E1,2.2336922E1,1.0024492E1,2.3545074E0,0E0,0E0,1.5009956E0,8.273376E0,1.8705297E0,4.151001E-1,0E0,2.9722157E0,1.0115028E1,2.5092422E1,6.333393E0,1.5911156E1,1.4978471E1,1.5640411E0,2.754135E-1,1.5274154E0,0E0,0E0,0E0,0E0,0E0,0E0,0E0,0E0,0E0,0E0,0E0,0E0,0E0,0E0,0E0,0E0,0E0,0E0,0E0,0E0,0E0,0E0,0E0,0E0,0E0,0E0],"parents":[2147483647,0,0,1,1,2,2,3,3,4,4,5,5,6,6,7,7,8,8,9,9,10,10,11,11,12,12,13,13,14,14,17,17,18,18,19,19,20,20,22,22,23,23,24,24,25,25,26,26,27,27,28,28,29,29,30,30],"right_children":[2,4,6,8,10,12,14,16,18,20,22,24,26,28,30,-1,-1,32,34,36,38,-1,40,42,44,46,48,50,52,54,56,-1,-1,-1,-1,-1,-1,-1,-1,-1,-1,-1,-1,-1,-1,-1,-1,-1,-1,-1,-1,-1,-1,-1,-1,-1,-1],"split_conditions":[-1.6913912E-1,-2.019707E-1,-6.82657E-2,1.469972E-1,-1.45564E-1,-4.8694396E-1,-1.5411662E0,-1.4935896E-2,-1.72895E-1,-7.208862E-1,-2.3935945E-1,-1.6358133E-1,-2.968756E-1,-4.8814464E-1,4.8695195E-1,-9.9867195E-2,-2.628181E-2,8.422209E-1,-3.9220244E-1,-2.3910113E-1,1.4483135E0,5.157538E-2,-1.9190328E-1,7.602324E0,-1.5231127E-1,-5.63254E-2,-1.609302E-1,-1.4584E-1,6.383794E-1,3.7826944E-2,-1.6356008E-1,-8.102293E-2,2.412245E-2,1.3266438E-1,-2.4773203E-2,-7.734399E-2,4.8397355E-2,-9.832751E-2,-1.5016265E-2,2.4130862E-2,-9.051272E-2,-4.1854333E-2,1.13709025E-1,1.12855494E-1,4.205927E-2,-2.5224326E-2,-8.979925E-2,-7.826605E-2,3.957515E-2,2.0449331E-1,-6.356531E-2,-9.301626E-2,9.847177E-3,-9.994977E-2,-2.0750439E-2,-5.474422E-2,6.2047184E-2],"split_indices":[1,94,160,148,105,89,163,72,58,90,40,7,137,52,159,0,0,80,143,40,143,0,106,5,1,15,60,1,39,141,7,0,0,0,0,0,0,0,0,0,0,0,0,0,0,0,0,0,0,0,0,0,0,0,0,0,0],"split_type":[0,0,0,0,0,0,0,0,0,0,0,0,0,0,0,0,0,0,0,0,0,0,0,0,0,0,0,0,0,0,0,0,0,0,0,0,0,0,0,0,0,0,0,0,0,0,0,0,0,0,0,0,0,0,0,0,0],"sum_hessian":[5.854749E2,1.2689446E2,4.5858044E2,3.335472E1,9.353974E1,3.920258E2,6.655465E1,1.2722429E1,2.063229E1,7.3960815E1,1.9578932E1,2.5364737E2,1.3837842E2,1.8104753E1,4.8449894E1,1.1691935E1,1.0304953E0,8.493035E0,1.2139254E1,3.3514986E0,7.0609314E1,1.6362162E0,1.7942715E1,4.685451E1,2.0679286E2,6.2999756E1,7.537867E1,6.622478E0,1.1482275E1,4.595856E1,2.4913325E0,7.3403277E0,1.152708E0,6.7494235E0,5.3898306E0,2.3455045E0,1.0059942E0,6.960889E1,1.0004251E0,2.1885908E0,1.5754124E1,4.3200565E1,3.6539454E0,1.16260086E2,9.0532776E1,2.8245584E1,3.4754173E1,1.3023791E1,6.2354877E1,2.9251819E0,3.6972961E0,9.982442E0,1.4998335E0,4.491378E1,1.0447824E0,1.3619184E0,1.1294142E0],"tree_param":{"num_deleted":"0","num_feature":"165","num_nodes":"57","size_leaf_vector":"1"}},{"base_weights":[-3.754268E-2,9.398132E-2,-9.8480624E-1,-1.2740943E-1,8.149798E-1,-2.135622E-3,-9.9874556E-2,-8.189335E-1,1.746778E-2,-2.8028294E-1,9.2770994E-1,3.9785165E-1,-9.218366E-1,2.0280798E-1,-5.032589E-1,4.5411348E-1,-8.477421E-1,9.940677E-1,-1.7907323E-1,1.0419188E-1,-3.7789E-2,-9.402832E-2,6.96424E-3,-7.3670454E-2,3.169601E-2,-6.167224E-2,2.7422324E-2,9.1496214E-2,-5.791538E-2,-1.0308506E-1,1.1651011E-2,-2.369069E-2,1.0358459E-1,-8.175974E-2,7.490011E-2],"categories":[],"categories_nodes":[],"categories_segments":[],"categories_sizes":[],"default_left":[0,0,0,0,0,0,0,0,0,0,0,0,0,0,0,0,0,0,0,0,0,0,0,0,0,0,0,0,0,0,0,0,0,0,0],"id":29,"left_children":[1,3,5,7,9,-1,-1,11,13,15,17,19,21,23,25,27,29,31,33,-1,-1,-1,-1,-1,-1,-1,-1,-1,-1,-1,-1,-1,-1,-1,-1],"loss_changes":[7.083864E1,7.983898E1,9.095917E-1,3.8389355E1,1.4765877E1,0E0,0E0,8.676853E0,3.0760805E1,5.2740674E0,8.018417E0,3.3283815E0,1.1901932E0,2.5436066E1,7.550516E0,3.275023E0,1.3501978E0,5.432831E0,4.6928973E0,0E0,0E0,0E0,0E0,0E0,0E0,0E0,0E0,0E0,0E0,0E0,0E0,0E0,0E0,0E0,0E0],"parents":[2147483647,0,0,1,1,2,2,3,3,4,4,7,7,8,8,9,9,10,10,11,11,12,12,13,13,14,14,15,15,16,16,17,17,18,18],"right_children":[2,4,6,8,10,-1,-1,12,14,16,18,20,22,24,26,28,30,32,34,-1,-1,-1,-1,-1,-1,-1,-1,-1,-1,-1,-1,-1,-1,-1,-1],"split_conditions":[-1.5679885E-1,-9.517863E-2,-1.4891168E-1,-3.915103E-2,-1.636185E-1,-2.135622E-3,-9.9874556E-2,-4.8817813E-1,-1.4889789E-1,-2.3584259E-1,-8.575119E-2,-1.9964537E-1,-9.436979E-2,-1.8240002E-1,2.8684003E0,-5.705036E-2,-1.5953955E-1,-1.6913912E-1,-1.3013524E-1,1.0419188E-1,-3.7789E-2,-9.402832E-2,6.96424E-3,-7.3670454E-2,3.169601E-2,-6.167224E-2,2.7422324E-2,9.1496214E-2,-5.791538E-2,-1.0308506E-1,1.1651011E-2,-2.369069E-2,1.0358459E-1,-8.175974E-2,7.490011E-2],"split_indices":[58,75,22,57,7,0,0,52,22,48,0,130,40,1,113,15,66,1,39,0,0,0,0,0,0,0,0,0,0,0,0,0,0,0,0],"split_type":[0,0,0,0,0,0,0,0,0,0,0,0,0,0,0,0,0,0,0,0,0,0,0,0,0,0,0,0,0,0,0,0,0,0,0],"sum_hessian":[5.668408E2,4.985235E2,6.831733E1,3.8203775E2,1.1648573E2,1.0104375E0,6.730689E1,6.536876E1,3.16669E2,1.0731767E1,1.0575397E2,4.8736525E0,6.0495106E1,2.3399472E2,8.2674286E1,4.7648797E0,5.9668875E0,9.986816E1,5.8858075E0,2.4753463E0,2.3983064E0,5.944084E1,1.054265E0,2.4759718E1,2.09235E2,7.232601E1,1.0348279E1,3.3743696E0,1.3905101E0,4.95658E0,1.0103071E0,3.1248605E0,9.674329E1,3.5573533E0,2.3284545E0],"tree_param":{"num_deleted":"0","num_feature":"165","num_nodes":"35","size_leaf_vector":"1"}},{"base_weights":[-2.2543306E-2,1.0200914E-1,-9.7963375E-1,-8.1640884E-2,7.422153E-1,-4.947379E-3,-9.949694E-2,-3.3822682E-1,2.9723775E-1,-3.5513437E-1,8.8198483E-1,-4.5871475E-1,1.1700875E0,-5.3736126E-1,5.7773125E-1,4.4148633E-1,-8.7571836E-1,9.456536E-1,-2.2427441E-1,-7.791813E-2,-8.430715E-3,2.0203273E-1,-7.605763E-2,-8.6822554E-2,1.0192464E-2,7.9465985E-2,-6.7354046E-2,-4.8594594E-2,8.387572E-2,-1.03084184E-1,9.894277E-3,9.8837875E-2,-4.339674E-2,-7.93603E-2,6.89631E-2],"categories":[],"categories_nodes":[],"categories_segments":[],"categories_sizes":[],"default_left":[0,0,0,0,0,0,0,0,0,0,0,0,0,0,0,0,0,0,0,0,0,0,0,0,0,0,0,0,0,0,0,0,0,0,0],"id":30,"left_children":[1,3,5,7,9,-1,-1,11,13,15,17,19,21,23,25,27,29,31,33,-1,-1,-1,-1,-1,-1,-1,-1,-1,-1,-1,-1,-1,-1,-1,-1],"loss_changes":[6.4609535E1,5.6465866E1,8.4100723E-1,3.642996E1,1.673077E1,0E0,0E0,4.1113792E1,3.575888E1,5.697546E0,6.919861E0,2.4828743E1,2.9111343E1,8.254706E0,3.1429249E1,2.5173519E0,1.3236713E0,5.7482986E0,3.6645255E0,0E0,0E0,0E0,0E0,0E0,0E0,0E0,0E0,0E0,0E0,0E0,0E0,0E0,0E0,0E0,0E0],"parents":[2147483647,0,0,1,1,2,2,3,3,4,4,7,7,8,8,9,9,10,10,11,11,12,12,13,13,14,14,15,15,16,16,17,17,18,18],"right_children":[2,4,6,8,10,-1,-1,12,14,16,18,20,22,24,26,28,30,32,34,-1,-1,-1,-1,-1,-1,-1,-1,-1,-1,-1,-1,-1,-1,-1,-1],"split_conditions":[-1.5679885E-1,-9.517863E-2,-1.556617E-1,1.0186019E0,-1.6360068E-1,-4.947379E-3,-9.949694E-2,4.82977E-2,-3.9975652E-1,-2.4317831E-1,-8.575119E-2,-1.6309807E-1,-1.2015375E0,-8.184933E-2,4.0716106E-1,-1.3973184E-1,-1.5785539E-1,1.0265406E0,-1.3013524E-1,-7.791813E-2,-8.430715E-3,2.0203273E-1,-7.605763E-2,-8.6822554E-2,1.0192464E-2,7.9465985E-2,-6.7354046E-2,-4.8594594E-2,8.387572E-2,-1.03084184E-1,9.894277E-3,9.8837875E-2,-4.339674E-2,-7.93603E-2,6.89631E-2],"split_indices":[58,75,24,2,7,0,0,1,136,46,0,7,99,101,154,21,60,52,39,0,0,0,0,0,0,0,0,0,0,0,0,0,0,0,0],"split_type":[0,0,0,0,0,0,0,0,0,0,0,0,0,0,0,0,0,0,0,0,0,0,0,0,0,0,0,0,0,0,0,0,0,0,0],"sum_hessian":[5.4015186E2,4.7874326E2,6.1408577E1,3.7270212E2,1.0604114E2,1.0645698E0,6.0344006E1,2.2227757E2,1.5042455E2,1.1806428E1,9.423471E1,2.0647935E2,1.5798214E1,3.760786E1,1.1281669E2,4.7261715E0,7.0802565E0,8.924364E1,4.991078E0,1.10671364E2,9.580798E1,1.0935788E1,4.8624253E0,2.4545929E1,1.30619335E1,9.645887E1,1.6357819E1,1.3504121E0,3.3757591E0,6.058385E0,1.0218714E0,8.683795E1,2.4056792E0,3.156397E0,1.8346808E0],"tree_param":{"num_deleted":"0","num_feature":"165","num_nodes":"35","size_leaf_vector":"1"}},{"base_weights":[-1.4104509E-2,1.3264704E-1,-7.882533E-1,2.3887396E-1,-9.2149323E-1,-5.610713E-1,-9.85108E-2,-4.8285902E-1,3.9492634E-1,-9.683995E-1,1.4355274E-2,-7.9346484E-1,1.6824664E-1,-6.352067E-1,8.8896596E-1,4.895608E-1,-9.911578E-2,9.392747E-3,-9.99201E-2,-2.649699E-1,-9.871756E-1,-8.212655E-2,5.5100256E-1,-8.315942E-2,-2.5740758E-2,1.1616868E-1,-3.83806E-2,8.681303E-2,2.0446088E-2,6.616367E-2,-7.2982036E-2,-3.779231E-2,-1.0981037E-1,-5.4402E-2,9.5660016E-2],"categories":[],"categories_nodes":[],"categories_segments":[],"categories_sizes":[],"default_left":[0,0,0,0,0,0,0,0,0,0,0,0,0,0,0,0,0,0,0,0,0,0,0,0,0,0,0,0,0,0,0,0,0,0,0],"id":31,"left_children":[1,3,5,7,9,11,-1,13,15,17,-1,19,21,23,25,27,-1,-1,-1,29,31,-1,33,-1,-1,-1,-1,-1,-1,-1,-1,-1,-1,-1,-1],"loss_changes":[5.969571E1,4.9692375E1,3.1919441E0,4.5484314E1,2.169838E0,7.1155863E0,0E0,1.5600643E1,4.393017E1,1.3721199E0,0E0,2.9545765E0,4.535222E0,4.6335773E0,3.0866532E0,3.3357376E1,0E0,0E0,0E0,4.7011094E0,1.1138821E0,0E0,4.238489E0,0E0,0E0,0E0,0E0,0E0,0E0,0E0,0E0,0E0,0E0,0E0,0E0],"parents":[2147483647,0,0,1,1,2,2,3,3,4,4,5,5,7,7,8,8,9,9,11,11,12,12,13,13,14,14,15,15,19,19,20,20,22,22],"right_children":[2,4,6,8,10,12,-1,14,16,18,-1,20,22,24,26,28,-1,-1,-1,30,32,-1,34,-1,-1,-1,-1,-1,-1,-1,-1,-1,-1,-1,-1],"split_conditions":[8.108786E-1,-7.558422E-2,-1.1473129E-1,-1.6913912E-1,2.2909115E-1,-1.5953955E-1,-9.85108E-2,-1.7632877E-2,-2.4024522E-2,-2.3935056E-1,1.4355274E-2,-4.3361878E-1,-4.1399452E-1,1.1355227E0,-1.9119589E-1,-1.5231127E-1,-9.911578E-2,9.392747E-3,-9.99201E-2,-1.6312264E-1,1.0094904E0,-8.212655E-2,1.4226594E0,-8.315942E-2,-2.5740758E-2,1.1616868E-1,-3.83806E-2,8.681303E-2,2.0446088E-2,6.616367E-2,-7.2982036E-2,-3.779231E-2,-1.0981037E-1,-5.4402E-2,9.5660016E-2],"split_indices":[88,124,66,1,131,66,0,71,4,40,0,142,51,91,96,1,0,0,0,59,88,0,90,0,0,0,0,0,0,0,0,0,0,0,0],"split_type":[0,0,0,0,0,0,0,0,0,0,0,0,0,0,0,0,0,0,0,0,0,0,0,0,0,0,0,0,0,0,0,0,0,0,0],"sum_hessian":[5.235352E2,4.40803E2,8.273219E1,4.011519E2,3.965114E1,4.019498E1,4.2537212E1,7.094434E1,3.3020755E2,3.8065422E1,1.585717E0,3.041533E1,9.779651E0,6.433643E1,6.6079044E0,3.0970905E2,2.049849E1,1.0148345E0,3.7050587E1,8.793142E0,2.1622189E1,2.4082096E0,7.371441E0,4.1541294E1,2.2795141E1,5.513737E0,1.0941675E0,1.3216672E2,1.7754234E2,2.796141E0,5.997001E0,4.0092154E0,1.7612972E1,1.9001585E0,5.471282E0],"tree_param":{"num_deleted":"0","num_feature":"165","num_nodes":"35","size_leaf_vector":"1"}},{"base_weights":[-2.2981266E-2,-6.665486E-1,1.420343E-1,-1.9276929E-1,-8.8518244E-1,2.8181714E-1,-7.431275E-1,-8.9465714E-1,1.9186221E-1,-9.1132516E-1,1.9071907E-2,3.6965784E-1,-9.6742965E-2,-3.2551262E-1,-8.99868E-1,-9.725557E-2,-1.6004595E-3,-4.4437298E-1,6.7857456E-1,-5.4772073E-1,-9.69586E-1,8.2168436E-1,1.8184105E-1,2.9046175E-1,-9.094175E-2,-9.5658165E-1,3.400792E-2,9.358471E-3,-9.858337E-2,1.0356154E-1,-4.9558513E-2,-8.131684E-2,4.5885574E-2,-2.2696512E-2,-9.797719E-2,-3.4979686E-2,9.10109E-2,-8.125923E-3,5.8731347E-2,1.128087E-1,-5.9662875E-2,-9.876746E-2,-1.4189034E-2],"categories":[],"categories_nodes":[],"categories_segments":[],"categories_sizes":[],"default_left":[0,0,0,0,0,0,0,0,0,0,0,0,0,0,0,0,0,0,0,0,0,0,0,0,0,0,0,0,0,0,0,0,0,0,0,0,0,0,0,0,0,0,0],"id":32,"left_children":[1,3,5,7,9,11,13,15,17,19,-1,21,-1,23,25,-1,-1,27,29,31,33,35,37,39,-1,41,-1,-1,-1,-1,-1,-1,-1,-1,-1,-1,-1,-1,-1,-1,-1,-1,-1],"loss_changes":[5.4054256E1,1.0588528E1,5.0348923E1,9.370987E0,2.1650124E0,3.884059E1,3.3426247E0,8.221741E-1,7.3730655E0,9.366989E-1,0E0,2.772908E1,0E0,6.279179E0,3.125328E0,0E0,0E0,3.1513174E0,6.1032133E0,3.5439258E0,2.1953201E-1,1.0273727E1,2.4932938E1,7.283436E0,0E0,8.3099747E-1,0E0,0E0,0E0,0E0,0E0,0E0,0E0,0E0,0E0,0E0,0E0,0E0,0E0,0E0,0E0,0E0,0E0],"parents":[2147483647,0,0,1,1,2,2,3,3,4,4,5,5,6,6,7,7,8,8,9,9,11,11,13,13,14,14,17,17,18,18,19,19,20,20,21,21,22,22,23,23,25,25],"right_children":[2,4,6,8,10,12,14,16,18,20,-1,22,-1,24,26,-1,-1,28,30,32,34,36,38,40,-1,42,-1,-1,-1,-1,-1,-1,-1,-1,-1,-1,-1,-1,-1,-1,-1,-1,-1],"split_conditions":[-1.6913912E-1,-2.0158221E-1,-6.82657E-2,1.469972E-1,-2.4528991E-2,1.9541095E0,-1.5411662E0,-1.5114135E-1,-1.6311413E-1,-1.9930163E-1,1.9071907E-2,-6.942105E-1,-9.6742965E-2,-4.693209E-2,1.1458314E-1,-9.725557E-2,